%YAML:1.0
---
opencv_ml_svm:
   format: 3
   svmType: C_SVC
   kernel:
      type: LINEAR
   C: 2.6699999999999999e+00
   term_criteria: { epsilon:1.1920928955078125e-07, iterations:1000 }
   var_count: 64
   class_count: 10
   class_labels: !!opencv-matrix
      rows: 10
      cols: 1
      dt: i
      data: [ 0, 1, 2, 3, 4, 5, 6, 7, 8, 9 ]
   sv_total: 45
   support_vectors:
      - [ -6.93449911e-05, 1.33580252e-04, 3.00328047e-05,
          6.65173065e-05, -2.21839036e-05, 0., 0., 4.60404777e-07,
          9.33050978e-05, 1.22206795e-04, -1.17844276e-04,
          -1.93113956e-05, -1.91860363e-05, -3.48705580e-05,
          1.98519047e-05, 3.56573946e-05, -3.63740837e-05,
          -1.19433971e-04, -1.13385773e-04, -8.32573496e-05,
          3.71322130e-05, 6.08593000e-05, 7.66896192e-05, 2.54410144e-04,
          2.28194665e-04, 5.14541025e-05, -1.07446074e-04,
          -3.66694439e-05, 6.45390028e-05, 6.14293021e-05,
          -2.74469876e-05, 2.82427991e-05, -5.01815193e-05,
          -2.92023706e-05, -4.41317716e-05, -1.09055887e-04,
          4.31599146e-05, 7.31012187e-05, 6.88946748e-05, 6.02691580e-05,
          -7.08055013e-05, -3.09828611e-05, 2.56409094e-05,
          9.90911576e-06, 3.83529332e-05, 1.19549390e-04, 3.50323353e-05,
          2.63546790e-05, 2.53761362e-04, 1.78583388e-04, 1.03812512e-04,
          8.11158970e-05, -4.22125631e-05, -7.41069962e-05,
          4.12181089e-06, -7.81367817e-06, -9.25514832e-05,
          -1.01049722e-04, 9.83189675e-05, 9.93678714e-06,
          1.47262945e-05, -1.91431172e-05, 2.62355061e-05,
          1.49359166e-05 ]
      - [ 1.16099618e-04, 5.67090028e-05, 1.39995136e-05,
          -1.81914947e-05, -2.10509006e-06, -5.93340919e-05,
          1.74760517e-05, 4.08320011e-05, 2.30716396e-05, 9.44029744e-05,
          2.59619555e-05, -1.47124838e-05, -5.66697272e-05,
          -1.42826480e-04, -4.70744089e-05, 2.07488720e-05,
          -1.02397189e-05, -1.88731021e-04, -1.05908301e-04,
          -5.33307102e-05, -8.99070001e-05, -1.33747351e-08,
          8.45132236e-05, 8.43641828e-05, 1.05556348e-04,
          -4.10146058e-05, -7.93011714e-05, -6.81575984e-05,
          -4.25586004e-05, 2.73786900e-05, 4.35229003e-06,
          6.58643185e-05, -4.69265760e-05, -3.48474423e-05,
          1.84886994e-05, 2.62887279e-05, 4.98324771e-05, 9.51274924e-05,
          -6.08782138e-05, 4.64372715e-06, -4.96848552e-05,
          -1.20530422e-04, -1.11046766e-05, 7.03196347e-05,
          7.37067676e-05, 7.59591494e-05, 6.09446070e-05,
          -1.09883040e-04, 1.39311946e-04, 1.26593906e-04,
          8.95991616e-05, -2.64906739e-05, -1.83776192e-05,
          -1.28479587e-04, -5.13659070e-05, -8.72979399e-06,
          1.35580616e-04, 2.48689030e-05, -1.34138945e-05,
          2.28847312e-05, -6.45399195e-05, -2.31935087e-06,
          -1.19227821e-06, 4.43132703e-05 ]
      - [ 5.94271041e-05, 4.32795714e-05, -4.07838634e-05,
          -2.10004328e-05, 2.51050233e-06, -1.44071628e-05,
          2.36522737e-07, -2.00207955e-06, 7.90466293e-05,
          9.03660330e-05, 8.21632057e-07, -3.60530576e-05,
          -6.61249651e-05, -9.49480091e-05, -6.69482470e-05,
          -3.32974537e-06, 9.43123741e-05, -8.22785296e-05,
          -9.28630616e-05, -7.92548453e-05, -7.11609464e-05,
          2.99467665e-05, 3.42715393e-05, 6.38120837e-05, 1.34247020e-04,
          8.57165796e-05, -4.12535155e-05, -1.12979833e-04,
          -4.94338237e-05, -1.49302587e-05, -1.50856408e-06,
          1.15754119e-04, -1.12727116e-06, -7.37459704e-05,
          -3.43865686e-05, 1.61444295e-05, 4.53267712e-05,
          7.90869963e-05, -2.03778800e-05, -2.09852496e-05,
          -8.58112544e-05, -3.64846455e-05, 1.44085698e-05,
          -2.27491619e-05, 3.94133822e-05, 7.94019215e-05,
          1.20387936e-04, 2.65007711e-05, 6.04045817e-05, 6.56965494e-05,
          3.37146812e-05, 5.80121559e-05, 3.79144076e-05,
          -1.96300007e-05, -6.82445825e-05, -3.01102609e-05,
          1.72025138e-05, 1.85474964e-05, -1.52940411e-05,
          7.67626261e-05, -1.72803375e-05, -4.80843846e-05,
          -2.96523976e-05, 3.33954558e-05 ]
      - [ 3.18748062e-05, 4.63004981e-05, 1.00897505e-05, 8.12276921e-05,
          -3.84825798e-05, -4.08605192e-05, -5.33200910e-05,
          -4.60878728e-05, 5.96194805e-05, 6.24052991e-05,
          3.02891403e-05, 1.12469552e-05, -1.45914726e-06,
          3.04693913e-06, 1.19955976e-05, 6.38646961e-05,
          -7.22729328e-06, -1.11861969e-04, -2.47682092e-05,
          -6.76990458e-05, 3.03537763e-05, 5.74929945e-05,
          1.97983027e-05, 9.35758508e-05, 1.22849975e-04, 3.02108147e-05,
          -8.80118569e-06, -1.23225836e-04, 3.35056313e-07,
          -7.88207763e-05, 1.73775188e-05, 6.24849272e-05,
          -6.77629505e-05, -1.54136069e-04, -4.80686504e-05,
          -7.91026978e-05, -1.42282242e-05, 7.19850141e-05,
          1.35767521e-04, -1.13334836e-05, -1.07265987e-04,
          -4.52237655e-05, 9.15831843e-05, 5.23178787e-05,
          2.96902272e-05, 4.80011295e-05, 1.28151471e-04,
          -1.43231455e-05, 1.14955408e-04, 1.80083807e-04,
          4.93832813e-05, 7.87701938e-05, 1.79686322e-06,
          -5.88230687e-05, -5.17933768e-05, 3.40215374e-05,
          2.79508749e-05, -7.84199437e-05, -5.96981863e-06,
          4.08558990e-05, -1.94458335e-05, -9.48840898e-05,
          -7.46459336e-05, 5.28115415e-05 ]
      - [ -4.69415827e-05, 1.18535982e-05, 5.25046526e-05,
          1.01769125e-04, 3.42148778e-05, -4.04104539e-05,
          -4.68513463e-06, -3.12113079e-05, 3.06434449e-05,
          6.62144739e-05, 3.70748203e-05, -9.21886340e-07,
          -1.30696508e-05, -3.97949516e-05, -5.79936423e-05,
          -1.02511411e-04, 3.10046125e-05, -1.13483045e-04,
          -4.40292970e-05, -6.17800833e-05, -6.92986723e-05,
          7.05194543e-05, 1.64251487e-05, 6.98451840e-05, 1.21970283e-04,
          5.86499591e-05, -4.86085883e-05, -9.34566415e-05,
          -5.02566400e-05, 3.40647130e-05, 7.50425170e-05,
          1.24364218e-04, 3.68159635e-05, 4.02762544e-06, 3.37431152e-06,
          -8.81156957e-05, -9.00920568e-05, -1.51207814e-05,
          5.86777605e-05, 6.59478683e-05, 7.07147865e-06,
          -5.45460498e-05, -8.76186314e-05, -8.31746001e-05,
          -4.70400155e-05, 5.51347548e-05, 1.21792640e-04,
          5.92574834e-05, -9.91184061e-06, 1.17160547e-04,
          7.02600446e-05, 6.72683673e-05, -2.41343405e-05,
          -7.08754669e-05, -1.16843963e-04, -6.78215511e-05,
          3.31678966e-05, -2.74783306e-05, 5.68973228e-05,
          7.92072315e-05, -3.15245234e-05, -6.84365150e-05,
          -1.03277162e-04, -4.10535040e-06 ]
      - [ -1.98013935e-04, -7.50273539e-05, 7.04790145e-05,
          1.59989242e-04, 1.13847891e-04, 2.40776099e-05,
          -1.02468235e-04, -2.14874708e-05, 6.72039023e-05,
          4.60036099e-05, -7.60382245e-05, -5.31701262e-05,
          5.75938975e-05, 4.27663836e-05, 1.59003901e-06, 3.69583940e-05,
          -3.04763289e-05, -5.61488123e-05, -5.21294278e-05,
          7.14227135e-05, -7.59697105e-06, 9.98151081e-05,
          2.89952022e-05, 5.69782751e-05, 5.95514175e-05, 1.34411588e-04,
          5.81249478e-05, -9.66689913e-05, -1.04469636e-05,
          1.37301962e-04, 3.24436987e-05, -4.44704274e-05,
          4.92996078e-05, -1.78439423e-05, -1.35567054e-04,
          -1.40471006e-04, -1.24251310e-04, 1.31465786e-04,
          1.42225617e-04, 1.77237176e-04, 4.02223213e-06,
          -1.70660016e-04, 2.60304005e-05, -1.22304937e-05,
          8.23065129e-05, 1.09953893e-04, 1.17038573e-04, 8.83393877e-05,
          2.13392268e-04, 1.01145430e-04, 5.39626053e-05,
          -2.26672364e-05, 1.06550833e-04, -5.71588243e-05,
          -1.65222609e-05, 8.08584446e-05, 4.30163782e-05,
          -1.51433387e-05, 1.72503678e-05, -1.33764363e-04,
          -1.14439590e-05, -3.78166333e-05, 2.21489026e-05,
          7.88631442e-05 ]
      - [ 1.16018891e-04, 4.62564494e-05, -4.82577707e-06,
          -1.83932043e-05, -8.79983127e-05, -2.33010924e-05,
          -1.47147075e-05, -1.59487206e-06, 8.44038441e-05,
          2.29423349e-05, -3.00615593e-05, -9.33960910e-05,
          -2.74719641e-05, -3.13555756e-05, -1.35161954e-05,
          8.48266864e-05, -1.16950241e-05, -1.32368208e-04,
          -6.79988007e-05, -4.50848602e-05, 2.10491544e-05,
          6.89730077e-05, 6.23921587e-05, 9.25238564e-05, 1.65999096e-04,
          -5.62932801e-05, -4.90114107e-05, -3.82723483e-05,
          6.21414583e-05, 4.08782907e-05, 2.29198959e-05,
          -2.18934692e-05, 9.32563580e-06, -8.37965345e-05,
          -3.09874813e-05, -8.28519842e-05, -3.57061872e-05,
          6.76632699e-05, 9.64229039e-05, 2.78625885e-05,
          -6.14543023e-05, -1.36699473e-05, -4.57621754e-05,
          1.36303079e-05, 2.89992386e-05, -1.62836204e-05,
          2.02343745e-05, -5.31988990e-05, 2.62994981e-05,
          7.85926604e-05, 1.34900165e-05, 7.95992382e-05, 9.06736659e-06,
          -1.98527468e-05, -7.33912893e-05, -6.83687249e-05,
          -7.64664364e-05, -9.60568359e-05, 1.20741834e-05,
          1.31231674e-04, 5.61503621e-05, -8.92116361e-07,
          -8.17633463e-06, 4.04342754e-05 ]
      - [ 1.23572536e-04, 8.77354905e-05, 7.77617970e-05,
          -6.67063432e-06, -5.65286209e-05, -1.07708722e-04,
          -1.59105286e-04, -4.21405566e-05, 3.07351947e-05,
          1.25280043e-04, -1.30931541e-04, -5.63105743e-07,
          8.80232903e-07, -2.53249709e-05, -1.31501321e-04,
          -1.12590598e-04, 2.60379147e-05, -1.91040992e-04,
          -7.15224887e-05, -2.79697360e-06, 2.26214361e-05,
          6.32186275e-05, 5.88557523e-05, 6.34262033e-05, 1.18083619e-04,
          3.25151050e-05, -6.41663646e-05, -6.49083886e-05,
          7.95644519e-05, 1.27693684e-05, -8.38415217e-05,
          -2.17740562e-05, -4.29002903e-05, -1.05843254e-04,
          -1.45235492e-04, -8.32161822e-05, -2.40941336e-05,
          1.16185030e-04, 3.22794840e-05, 7.30361935e-05,
          -5.96468126e-05, -3.39094513e-05, -1.95489501e-05,
          -3.73851805e-07, 3.77677752e-05, 1.42697627e-05,
          5.76028906e-05, 1.29043492e-05, 1.78757226e-04, 1.28688655e-04,
          2.22170474e-05, 5.96221034e-05, 2.75458078e-05,
          -4.40206204e-05, -1.39236829e-04, -6.62341699e-05,
          7.16364957e-05, -2.61360674e-05, -3.36727826e-05,
          -2.55992563e-06, -8.49591306e-05, -6.79347650e-05,
          -2.70434575e-05, 4.05642822e-05 ]
      - [ 1.05599349e-04, 2.67113010e-05, -1.08453733e-05,
          4.73446453e-05, -8.19103661e-06, -4.57177812e-05,
          -5.73650432e-05, -1.19384778e-04, 1.53855843e-04,
          -5.38173736e-05, -3.97694821e-05, 9.85461429e-06,
          -1.01583362e-04, -5.44805771e-05, -8.33229860e-05,
          -1.19591032e-05, 4.81390452e-05, -1.06928783e-04,
          -1.12040310e-04, -6.81554084e-05, -1.69537143e-05,
          2.25227614e-05, 5.23042627e-06, 4.99144917e-05, 2.45732022e-04,
          9.55343567e-05, -9.03374894e-06, -9.69919201e-05,
          1.24996996e-05, -3.65440610e-05, 8.35027895e-05,
          1.15907365e-04, -5.37391024e-05, -8.04982847e-05,
          -3.32900381e-05, -1.14721726e-04, -7.09004889e-05,
          6.82491518e-05, 7.56583977e-05, 3.84372324e-05,
          -1.12928887e-04, 4.17835472e-05, 6.09220406e-05,
          -6.28171401e-05, -4.35367474e-05, -2.14110310e-06,
          7.83562282e-05, 3.33955686e-05, 1.13561051e-04, 9.23065454e-05,
          1.97195895e-05, 1.23217207e-04, 2.90285752e-05, 1.14893264e-05,
          -7.13436339e-06, -8.50162396e-05, -1.13124013e-04,
          -7.72551575e-05, 9.45331994e-05, 1.96488298e-04,
          4.15401992e-05, -7.15140268e-05, -6.45225009e-05,
          -4.72930333e-05 ]
      - [ 1.24902988e-04, 1.83118507e-04, 5.47498894e-05,
          -2.15244381e-05, -7.90761333e-05, 5.28617820e-05,
          -1.29251530e-05, -6.32359070e-06, -2.21447281e-05,
          -4.54994515e-05, 1.28748448e-04, -9.00349260e-05,
          3.39180369e-05, -3.59788137e-05, -1.13405695e-04,
          2.34735300e-04, 3.44762411e-05, -1.16153329e-04,
          -6.20366482e-05, -1.17372954e-04, 9.61316255e-05,
          -1.73551562e-05, -2.31491886e-05, -4.43272947e-05,
          -1.34953361e-05, -7.40501036e-06, 8.88210634e-05,
          4.19761382e-05, -2.25926415e-04, 9.16715805e-07,
          -8.75955593e-05, 9.97506777e-06, -2.53232894e-04,
          -5.17994704e-05, 1.29379157e-04, -3.89818815e-05,
          -1.25226325e-05, -5.84294648e-05, -8.41940055e-05,
          3.85058302e-05, 7.14498310e-05, 3.94437084e-05, 6.73447744e-07,
          2.55356508e-06, -2.34120453e-05, -8.14566229e-05,
          1.24009284e-06, -1.06738320e-04, 2.36612381e-04,
          -1.05580140e-04, 5.93396835e-05, -1.11063542e-04,
          -1.28482585e-04, -5.69715667e-05, -5.50181649e-05,
          1.25647188e-04, 1.35454480e-04, -1.58332201e-04,
          -7.73899519e-05, 1.11177960e-05, -1.38158139e-04,
          -1.73892651e-04, -8.46814364e-05, 1.08996101e-04 ]
      - [ 7.23523553e-05, 3.93353694e-05, -6.58224671e-05,
          -1.56759837e-04, -6.90079687e-05, 1.39068061e-05,
          -5.71425198e-06, -3.45629616e-07, -4.27786608e-06,
          -3.31566298e-05, 9.67105007e-05, -6.80059384e-05,
          -9.47089720e-05, -9.10554663e-05, -9.28448353e-05,
          1.45206708e-04, 1.30369604e-04, 3.79228891e-06,
          -6.29459691e-06, -1.90430237e-05, -5.84871923e-05,
          -4.79675873e-05, -1.68193566e-07, 0., -9.31085651e-06,
          -1.01436644e-05, -8.65468155e-06, 5.81525273e-05,
          -7.41887852e-05, -1.06340332e-04, -6.17486730e-05,
          9.25593704e-05, 8.34646489e-05, -4.49437939e-05,
          3.38832979e-05, -3.99283126e-05, -1.21240037e-05,
          -7.95004307e-05, -2.77507133e-05, 7.43139462e-05,
          4.30172113e-05, 1.93789219e-05, -2.46825311e-05,
          1.47492437e-06, 6.19279217e-06, -1.08820805e-05,
          -4.28539206e-05, 1.19256420e-05, -8.66848495e-06,
          -8.42799273e-05, -3.83720544e-05, 4.85053852e-06,
          5.94332450e-05, 8.49060452e-05, -1.51569693e-05,
          2.47129647e-05, 9.47859808e-05, -1.99801303e-04,
          -3.54367476e-05, 1.01863421e-04, 9.89662840e-06,
          -2.10252620e-06, -5.35360487e-05, -2.46504333e-05 ]
      - [ -2.35929911e-05, -2.00744289e-05, 3.91037465e-05,
          -7.84416188e-05, -6.58272547e-05, -8.01662100e-05,
          -1.29185981e-04, -1.59631396e-04, -1.29275330e-04,
          -5.42752823e-05, 1.68503946e-04, 2.66047027e-06,
          3.61598431e-05, 4.93575026e-05, 2.10820799e-05, 1.88740683e-04,
          5.77092251e-05, 3.56290875e-05, 1.34946313e-04, 2.50362882e-05,
          -1.07841734e-05, -1.18052609e-04, -4.82676369e-05,
          -8.71405718e-05, -5.76312050e-05, -5.03699048e-05,
          7.22495679e-05, -2.19835165e-05, -2.45895964e-04,
          -2.36085078e-04, -2.39210294e-05, 5.36681946e-05,
          -6.43295134e-05, -1.52703113e-04, -9.38491794e-05,
          -1.50914857e-04, -4.50667103e-05, -9.56419967e-07,
          4.44349353e-05, 1.40955221e-04, 1.11734946e-04, 1.21590092e-05,
          -2.19282651e-06, -6.82477412e-06, 2.50476496e-05,
          1.99604037e-05, 2.57464817e-05, -3.06992551e-05,
          6.31901494e-05, -1.21675395e-04, -9.02530810e-05,
          -6.16629550e-05, 7.53038694e-06, 9.09121518e-05,
          5.91040989e-05, 1.19662182e-04, -1.09718712e-05,
          -2.03788877e-04, -6.26839756e-05, 4.80161943e-05,
          -6.53789830e-05, -5.31850383e-05, -1.56951384e-04,
          1.59236752e-05 ]
      - [ -3.62733917e-05, 2.49778441e-05, 1.90404023e-06,
          -3.34274409e-05, 4.24566588e-06, 2.91019278e-05,
          -2.04666467e-05, -1.48924000e-05, -7.63785065e-05,
          -2.43117556e-05, 6.07894617e-05, 1.75131063e-05,
          3.76852877e-05, 4.72326828e-05, -1.27493651e-04,
          -4.18186974e-05, 1.06444932e-04, 7.71104242e-05,
          -1.48230640e-04, 1.50223177e-05, -9.01223666e-06,
          -3.31573356e-05, -3.81715181e-05, -5.39425355e-06,
          1.53876256e-09, 9.96075414e-07, 4.72248867e-05,
          -1.57036717e-04, -3.55112643e-05, -7.20873795e-05,
          9.24727738e-06, 7.06276915e-05, 7.01894605e-05, 2.83463851e-06,
          1.91329254e-05, -3.86948741e-05, -8.83029134e-05,
          -5.61967281e-05, -5.42951966e-05, 1.47424362e-04,
          6.83303224e-05, -2.89186646e-05, -1.15392540e-04,
          -9.11023162e-05, -1.68871848e-05, 2.52989366e-06,
          -1.55638409e-05, 4.24930658e-05, -4.35960355e-05,
          -9.99480544e-05, -2.63393781e-06, -5.58180291e-05,
          -5.03279944e-06, -1.84337823e-05, -2.15071323e-05,
          1.94979821e-05, 1.12252194e-04, -9.47703084e-05,
          -7.93924628e-05, 3.88189474e-05, -3.70573944e-05,
          -1.09522971e-05, 1.35877908e-05, -8.26917167e-05 ]
      - [ -9.67391679e-05, -9.16446515e-05, 1.90781080e-04,
          1.72285127e-05, 3.66950153e-05, 4.95379800e-06,
          -7.82968982e-06, -7.91199727e-06, -1.01589330e-05,
          -8.54719019e-06, 1.27579595e-04, 1.25605693e-05,
          1.30613535e-05, 1.92181124e-05, 1.96603323e-05, 1.35040260e-04,
          1.96091696e-05, -5.20844114e-05, 1.29785240e-05,
          6.10833013e-05, 4.07054576e-05, -5.54867729e-05,
          -1.01414871e-05, -4.51083506e-05, -4.84342636e-05,
          -1.55598664e-05, 2.15646760e-05, 5.23112758e-05,
          2.19461854e-05, -1.91775864e-04, 1.35056580e-05,
          1.06632418e-04, -2.46971722e-05, -6.11943597e-06,
          2.47813678e-05, -4.22766498e-05, -4.06451327e-05,
          -1.23204503e-04, -1.05786705e-04, 2.04302138e-04,
          1.90530787e-04, -1.85378085e-04, -1.29347472e-05,
          -3.56899909e-06, 1.52355042e-05, 8.92390744e-06,
          1.65523943e-05, 2.47570824e-05, 6.67222266e-05,
          -4.18779819e-05, -2.13478143e-05, -3.50785911e-07,
          -4.39749310e-05, 4.68671060e-05, -2.58588971e-05,
          1.21859564e-04, 1.60462776e-04, -1.24577346e-04,
          -1.48368388e-04, -9.85075749e-05, -3.54967124e-05,
          6.32468873e-05, -1.82936947e-05, -3.38316422e-05 ]
      - [ 2.28787307e-04, 2.15951536e-06, -1.40349166e-05,
          -2.19664333e-04, -1.41338474e-04, 1.13448332e-05,
          3.65554160e-06, 0., -5.21715447e-05, -8.08805271e-05,
          2.36317974e-05, -2.13042105e-04, -1.44900579e-04,
          -2.31921458e-05, -3.92743059e-05, 2.73791782e-04,
          -7.38307790e-05, -4.15186623e-05, 1.36266477e-04,
          -2.58070395e-05, -2.96387552e-05, 2.09300723e-07, 0., 0.,
          -3.74097931e-06, -1.33206622e-05, 1.65241181e-05,
          1.53406290e-05, 7.97969915e-05, -3.07766531e-05,
          -1.45543745e-04, 9.08724269e-06, -7.98628116e-06,
          -5.84157460e-05, 1.53099882e-05, -1.36786271e-04,
          -9.66178050e-05, -3.09447096e-05, 6.19506027e-05,
          9.49030073e-05, 1.07961365e-04, 3.57843237e-05,
          -3.02376111e-06, 9.68627046e-06, -3.85884159e-05,
          -1.31319088e-04, -7.68019527e-05, -5.91686985e-05,
          -1.65185738e-05, -2.51567562e-05, -1.33743786e-04,
          3.70020558e-07, 1.55926227e-05, 7.67089805e-05, 1.63081459e-05,
          -7.54170396e-05, -6.77582066e-05, -1.52000954e-04,
          -4.11534020e-05, 9.42289698e-05, 1.11253299e-04,
          -2.28413246e-05, 8.02415161e-06, 3.38419850e-05 ]
      - [ 1.78731309e-04, 4.38906100e-05, -2.82586079e-05,
          -1.99238988e-04, -5.21444854e-05, 4.05238679e-05,
          -4.40809526e-05, -6.91990208e-05, -3.27738817e-05,
          -6.96490024e-05, 9.61653059e-05, -6.43782114e-05,
          1.02301274e-04, 1.10673886e-04, -1.59462958e-04,
          5.85342241e-05, -2.29137404e-05, -3.35044861e-05,
          9.79025863e-05, 1.12051981e-04, 2.82180044e-05,
          -2.53798753e-05, -5.24065545e-05, -1.50276464e-05,
          -2.02032752e-05, -5.14543972e-05, 2.71224380e-05,
          -8.62304150e-05, 9.21626852e-05, -1.11481742e-04,
          -1.07449676e-04, -8.30454974e-06, -3.61540224e-05,
          -1.26447834e-04, -5.30285251e-06, -2.65285023e-04,
          -2.46477342e-04, -1.83203854e-04, -1.88879549e-05,
          1.78517716e-04, 1.04520550e-04, -8.84941619e-05,
          -1.09461456e-04, -4.67342870e-05, -3.95655370e-05,
          -3.64324223e-05, -7.86827077e-05, -2.54909774e-05,
          -2.32664775e-06, -6.85942869e-05, 5.29420940e-05,
          -2.57048123e-06, 4.47223392e-05, 1.53219618e-04,
          -1.89945247e-04, 5.21431775e-06, 1.50839696e-04,
          -1.81771524e-04, -1.47176819e-04, 3.60574231e-05,
          -1.46590333e-04, -3.03695706e-05, -1.10347784e-04,
          4.16895746e-05 ]
      - [ 7.16861496e-06, -4.18254458e-05, -1.68681181e-05,
          -9.07957801e-05, -9.11885363e-05, -2.49642871e-05,
          -8.12628932e-05, -3.73766379e-05, -1.45694765e-04,
          -1.40393051e-04, 1.23793216e-04, -3.93983319e-05,
          1.18142270e-05, 2.04358766e-05, -3.79673693e-05,
          1.98757523e-04, 2.92631630e-05, 4.11230540e-05, 1.45315298e-05,
          3.86903451e-07, -9.60745638e-06, -1.07912376e-04,
          -2.20258335e-05, -7.76954403e-06, -8.25736947e-07,
          -8.97324117e-06, 1.19089054e-04, -9.02707543e-05,
          -9.49211972e-05, -2.69527751e-04, -1.56242459e-04,
          2.81993329e-04, 3.98496704e-05, -5.76434686e-05,
          -8.61312437e-05, -1.27946172e-04, -1.41864381e-04,
          -1.22834928e-04, 1.11933332e-05, 1.65841513e-04,
          1.23889724e-04, 8.57004634e-05, -1.23544460e-05,
          -6.71053349e-05, -6.05540044e-05, -6.43641106e-05,
          -2.41972684e-05, 5.77483161e-06, -9.41224935e-05,
          -9.71125482e-05, -2.60364068e-05, -2.14107422e-05,
          4.23057354e-05, 1.45315076e-04, -1.52244002e-05,
          5.20538720e-07, -1.32827074e-04, -2.01267176e-04,
          -2.47366697e-05, 1.67196427e-04, 1.37082534e-04,
          -6.29193310e-05, -8.52240482e-05, -3.40325132e-05 ]
      - [ -1.44583595e-04, -4.51097701e-04, -3.23262444e-04,
          -4.18655138e-04, -3.00843269e-04, 5.39744098e-04,
          1.62466444e-04, 1.35200142e-04, -1.75481793e-04,
          8.63353926e-05, -2.32166669e-04, -3.01161162e-05,
          -2.10190061e-04, -3.98450007e-04, 2.44211897e-05,
          -1.81630385e-04, 4.88452148e-04, 3.65768443e-04,
          2.47446413e-04, 3.03050358e-04, -1.89534316e-04,
          -3.23831220e-04, -6.17065743e-05, 1.53222631e-04,
          5.05259552e-04, 5.64518792e-04, 1.28752930e-04, 1.23640739e-05,
          -2.53889229e-05, 1.48269581e-04, -3.11554541e-05,
          3.43923399e-04, 3.35821474e-04, 3.76195421e-05,
          -2.37830216e-04, 3.62810300e-04, 1.17231997e-04,
          1.71662192e-04, 2.19769572e-04, 3.53354961e-04, 2.60511471e-04,
          -3.07802584e-05, -2.02918061e-04, 2.25355499e-04,
          2.94952857e-04, 4.10965236e-04, 3.26555019e-04, 8.22740607e-04,
          -2.80710927e-04, -3.24804598e-04, -2.37490851e-04,
          2.71133817e-04, 2.03721633e-04, -7.77544992e-05,
          -1.74896937e-04, -4.43028461e-04, -3.06537986e-04,
          -1.96221270e-04, -5.17652406e-05, 6.84583283e-05,
          1.05809901e-04, 3.87882901e-04, -5.46728952e-05,
          9.59580211e-06 ]
      - [ -1.13847411e-04, -1.40838994e-04, -5.23915041e-05,
          1.74259621e-04, -7.38244489e-05, -1.31776562e-06,
          -6.34238168e-05, -8.18092376e-05, -1.43193800e-04,
          -2.02748433e-05, 5.42888483e-05, 1.66630678e-04,
          2.10423779e-04, 2.46155279e-04, 1.72737855e-04, 6.23905944e-05,
          -9.90600074e-06, 1.13492184e-04, 1.53813409e-04,
          2.50713172e-04, -3.37762067e-05, -2.57899956e-06,
          -8.12928774e-05, -7.03550177e-05, -2.78115913e-05,
          1.55294820e-05, -2.23559095e-04, -4.90385937e-05,
          4.36151277e-05, -1.59410265e-04, -9.24857250e-06,
          -2.91647029e-05, -6.12301938e-06, -2.10739981e-05,
          -1.91888292e-04, -2.29348880e-05, 1.24029408e-04,
          8.77665807e-05, 1.28321539e-04, 2.50910653e-05,
          -1.68773695e-05, 1.53752888e-04, -6.08991331e-06,
          1.80453659e-04, 1.27254098e-04, 1.20986224e-04, 6.24147942e-05,
          -9.97869392e-06, -5.31291189e-05, 1.76730591e-05,
          -4.12595873e-05, 3.19686224e-05, 1.04697312e-04,
          1.79879251e-04, 1.79270012e-06, 7.76440356e-06,
          -1.22069338e-04, -1.25923179e-04, 5.87746072e-05,
          -5.99121013e-05, 1.62054144e-04, -4.79671071e-05,
          -2.20084490e-04, -8.54514801e-05 ]
      - [ -1.51867571e-04, -4.73518630e-05, 2.33233986e-05,
          1.17724676e-05, 5.41122645e-05, 6.85742853e-05, 2.60336401e-05,
          -9.35249045e-06, -8.48568379e-05, 2.93577682e-06,
          1.20695753e-04, 5.57248859e-05, 8.20073401e-05, 6.47279448e-05,
          -1.18594624e-04, -1.98371286e-04, 1.17879616e-04,
          1.57991395e-04, 1.24535754e-05, 2.58035925e-05,
          -4.26410188e-05, 3.72087834e-06, -2.63668153e-05,
          1.79478593e-05, 6.89047229e-05, 7.35577996e-05, 6.91361711e-05,
          -3.82702383e-05, -9.51010588e-05, 1.50293326e-05,
          5.19344794e-05, 6.63277169e-05, 1.92803593e-04, 1.28797037e-04,
          6.79722361e-05, -2.01660987e-05, -7.63028947e-05,
          -9.50379763e-05, 4.04108068e-05, 1.27468113e-04,
          1.76991976e-04, -5.51721350e-05, -1.86043209e-04,
          -1.93935324e-04, -5.42833259e-05, 4.14892456e-05,
          3.52946772e-05, 1.41642449e-04, -1.29428416e-04,
          -8.87066344e-05, -9.22556283e-05, 6.38547353e-05,
          9.87774274e-06, -2.87191397e-05, 1.69842895e-06,
          -8.85133049e-05, -1.47674247e-04, 6.72638635e-05,
          1.02894228e-04, 8.62698944e-05, 3.99232631e-05, 8.64023896e-05,
          -2.14199245e-05, -1.21371493e-04 ]
      - [ -2.53298465e-04, -1.00660254e-04, -2.61198929e-05,
          1.86254081e-04, 3.31779884e-05, 9.56863441e-05, 6.50856309e-05,
          3.68323817e-05, -8.18003828e-05, -7.45346188e-05,
          -9.32668117e-05, 1.56050359e-04, 2.15388991e-05,
          1.78045404e-04, 1.40626289e-04, 7.74522050e-05, 7.57976377e-05,
          1.09951965e-04, 6.63219907e-05, 7.61823685e-05,
          -3.09635470e-05, 1.36154422e-05, 6.65159405e-06,
          4.97377141e-06, -4.18100099e-05, 8.62990637e-05,
          2.20884340e-05, 8.85305490e-05, -6.28117414e-05,
          7.79417023e-05, 5.28046039e-05, -3.33725111e-05,
          1.52609049e-04, -1.11899290e-05, -9.21150058e-05,
          -2.32188868e-05, -2.25881267e-05, 6.14300661e-05,
          -3.21099833e-06, 1.68186903e-04, 7.28062078e-05,
          -3.36429512e-05, -2.43923641e-05, -6.46008193e-05,
          1.02036312e-04, 7.20643948e-05, 5.74141632e-05, 6.53525203e-05,
          -1.40340844e-05, -8.69266441e-05, -6.81564488e-05,
          6.64232430e-05, 7.93481668e-05, 2.27524961e-05, 7.10921881e-07,
          -4.01297402e-05, -1.87137575e-05, -2.80522528e-07,
          -4.71176718e-05, -4.15314826e-05, -2.40760291e-05,
          9.11116149e-06, -2.12867344e-05, -6.29326241e-05 ]
      - [ 2.19282752e-04, -5.84181325e-05, -2.05701406e-04,
          6.10690622e-05, -4.64717923e-05, 1.70702158e-04,
          -1.21552021e-05, 2.69893208e-05, -5.41327654e-06,
          3.43807696e-05, 1.41693454e-04, -2.26554566e-05,
          -1.66989383e-04, -1.44701453e-05, 1.72426153e-04,
          2.04701661e-04, -2.16448723e-04, -2.99075623e-06,
          2.51905411e-04, -2.31614642e-04, -7.30037791e-05,
          1.35611597e-04, 2.01540999e-04, 1.23946986e-04, 3.48309441e-05,
          -4.69511579e-05, -2.31586644e-04, -3.11477197e-05,
          3.42809333e-04, 9.54351272e-05, 7.03593687e-05,
          -1.67292354e-04, 1.91655985e-04, 1.79208830e-04,
          6.41523948e-05, 1.83712309e-05, -1.88405029e-04,
          3.22667212e-04, 1.87498110e-04, 1.26931045e-04, 9.59309109e-05,
          -1.10138331e-04, -2.33986648e-05, -5.42374328e-05,
          -1.88884791e-04, -1.17149124e-04, 4.72187385e-05,
          -1.03754079e-04, -1.18105439e-04, 3.11044823e-05,
          -3.28514783e-04, 3.35034420e-04, 2.20542142e-06,
          -6.98138538e-05, 4.95631211e-05, 6.43281164e-05,
          -4.01013182e-04, -3.01987224e-04, -3.57101599e-05,
          1.49598054e-04, 4.93407249e-04, 2.22751711e-04, 1.13447641e-04,
          -2.56041385e-04 ]
      - [ -9.37805307e-05, 3.95081370e-05, -1.12439469e-04,
          5.85469716e-05, -5.88899857e-05, -1.51088956e-04,
          -4.46646387e-04, 2.49504694e-04, -2.04680673e-05,
          -2.03481934e-04, -3.10098811e-04, 1.86213205e-04,
          2.29952348e-04, -1.61762237e-05, -4.59819130e-04,
          -4.74106579e-04, -3.84880186e-05, 3.01964639e-04,
          1.75418303e-04, 3.34253215e-04, -2.07879319e-04,
          -9.03664841e-05, -8.53961974e-05, -2.42934373e-04,
          4.25071230e-05, 4.74610897e-05, 5.45613002e-05, 3.37884441e-04,
          2.05482356e-04, 1.14114919e-04, -7.06684150e-05,
          -3.53120231e-05, 2.68121279e-04, -7.17229195e-05,
          -1.30618515e-04, 1.78779417e-04, -3.03089910e-04,
          -1.21366647e-04, 6.67095810e-05, 2.69436772e-04,
          -6.48451314e-05, 2.90671869e-05, -9.93088979e-05,
          -8.72050950e-05, 1.18458294e-04, 2.11177085e-05,
          3.19609739e-04, 4.59557574e-04, -1.80207280e-04,
          -3.19056271e-04, -2.78420659e-04, 1.51987901e-04,
          3.58300400e-04, 1.00134457e-04, -2.42320675e-04,
          -4.00473189e-04, -1.21632533e-04, -2.28167610e-05,
          3.96327923e-05, -2.23860887e-04, -7.72248459e-05,
          2.53882790e-05, -9.62200720e-05, -1.17344702e-04 ]
      - [ -8.44416718e-05, -9.76805895e-05, -4.74413282e-05,
          -1.42871004e-05, 2.01322946e-05, 6.33481395e-05,
          -3.90329078e-05, -4.12158734e-05, 4.01170701e-06,
          -9.49941023e-05, -7.40467876e-05, 7.06740029e-05,
          6.64919717e-05, 8.56941988e-05, 4.08780361e-05,
          -1.01632882e-04, 2.44141502e-05, 6.21364379e-05,
          6.63120154e-05, 1.62995188e-04, -3.61725070e-05,
          -6.93460825e-05, -1.71047304e-05, -5.02530420e-05,
          4.05136598e-05, -1.25356873e-05, 7.78147005e-05,
          2.89342242e-05, -1.28619820e-06, -8.58988788e-05,
          6.10121642e-05, 3.94231611e-05, 9.45114734e-05,
          -1.62338238e-05, -8.33943777e-05, -6.92255526e-06,
          -8.99092920e-05, 2.97204206e-05, 5.79776424e-05,
          -1.68024799e-05, 7.71505656e-05, -9.66201128e-07,
          -1.47949568e-05, -6.77336648e-05, -6.26368055e-05,
          -6.96632151e-06, 6.00762542e-05, 1.25919891e-04,
          -1.47922954e-04, -2.17683501e-05, -1.03707112e-04,
          3.88885837e-06, 1.49843094e-04, 1.09165594e-04, 9.85802253e-05,
          -6.79298028e-05, -2.10249127e-04, -1.20624536e-04,
          1.47327184e-04, 1.25585502e-04, 2.12688119e-05, 3.56031887e-05,
          -6.22178632e-05, -9.30488532e-05 ]
      - [ -9.81510384e-05, 1.35094224e-05, 1.30371045e-04,
          1.11836627e-04, 8.07158940e-05, -6.99072916e-05,
          -6.92466201e-05, -1.28228319e-04, -1.18633019e-04,
          8.70986551e-05, -7.50290019e-06, 2.14225438e-04,
          1.56394031e-04, 1.98599126e-04, 1.26351515e-04,
          -5.76678758e-05, -1.32020767e-04, 8.30857607e-05,
          1.04643514e-04, 1.39588694e-04, 5.09840938e-05,
          -2.04575713e-06, -4.44050711e-05, -7.53604618e-05,
          -1.31408651e-05, -5.13493360e-05, -7.20718981e-06,
          -6.93037800e-05, -5.67266798e-05, -2.03637373e-05,
          7.43256896e-05, -9.44424683e-05, -1.30949978e-04,
          -1.29678199e-04, -1.09447574e-04, -5.59211985e-05,
          5.48915814e-05, 7.72606654e-05, 1.65332545e-04,
          -2.30131300e-05, -4.88471051e-05, -5.27886332e-05,
          -7.61942920e-06, 1.30778251e-04, 1.74823854e-05,
          5.23388153e-05, 8.33664599e-05, -4.60946685e-05,
          6.24036111e-05, 2.58510227e-05, 5.35652398e-05,
          -7.78935282e-05, -1.27901934e-04, -4.01829093e-05,
          1.01369442e-04, 3.59504202e-06, -9.28189984e-05,
          -5.13838022e-05, 4.56466696e-05, -1.07124804e-04,
          -3.59222940e-05, -6.36200275e-05, -1.83848548e-04,
          -1.01823833e-04 ]
      - [ -1.63502540e-04, 8.20364439e-05, 1.71591237e-04,
          3.40314291e-04, 3.04569578e-04, 4.89869017e-05,
          -1.00542318e-04, -1.30162487e-04, -1.46433304e-04,
          -2.21420232e-05, 1.22115511e-04, 1.15852206e-04,
          3.30586714e-04, 1.20324643e-04, 8.44639180e-06,
          -2.67728145e-04, 1.37397030e-04, -9.23617481e-05,
          -9.40445680e-05, -7.46876904e-05, 2.53965900e-05,
          1.11078283e-04, -2.88850151e-05, 8.67069466e-05,
          7.63212010e-05, 5.93756113e-06, 8.94096083e-05,
          -7.32084955e-05, 2.18987534e-05, 3.39680155e-05,
          2.50076031e-04, 2.39131004e-05, 4.23954698e-05, 2.30571284e-04,
          -8.50531360e-05, -3.12731601e-04, -1.84269040e-04,
          1.99375208e-05, -8.76738850e-05, 4.39788819e-05,
          3.28192400e-04, 1.18596916e-04, -8.39773857e-05,
          -3.52999516e-04, -2.32680759e-04, -1.84084362e-04,
          2.54298720e-05, 1.94917462e-04, -1.78529008e-04,
          9.91420820e-05, -4.92379877e-05, -3.88388180e-05,
          -1.81042458e-04, -1.66986374e-05, 2.11358529e-05,
          -1.01831247e-04, -2.87645398e-05, 1.05882908e-04,
          -1.36315575e-04, -1.06261927e-04, -7.85013835e-05,
          4.74781227e-05, -3.93213304e-05, -7.93324070e-05 ]
      - [ -1.50278778e-04, -9.12751057e-05, 3.21054977e-05,
          1.23520949e-04, 7.94971347e-05, 3.97411168e-05,
          -3.26826307e-06, 1.82777057e-06, -3.98703487e-05,
          4.10744860e-06, -9.82692509e-05, 1.16418443e-04,
          8.78428837e-05, 9.38372541e-05, 7.31647015e-05, 3.14587633e-05,
          -9.22468098e-05, 2.90878488e-05, 8.19359993e-05,
          6.97467840e-05, 7.12129113e-05, 4.94942033e-05,
          -6.46249900e-05, -6.45322871e-06, -8.04943411e-05,
          -2.03258605e-05, 2.80098284e-05, 6.58680892e-06,
          9.38993326e-05, 7.90094928e-05, 2.21987511e-06,
          -3.35683326e-05, 5.90492200e-05, 5.33532184e-05,
          -4.53141183e-05, -6.82572645e-05, 3.08949166e-05,
          -7.63018488e-06, 8.71231678e-05, 8.23440496e-05,
          3.25904693e-05, -6.04641136e-05, 1.76912690e-05,
          2.73103869e-05, 3.53064970e-05, -6.36789366e-07,
          3.68675501e-05, 5.09523379e-05, 6.56459451e-05,
          -2.04210828e-05, 3.68525180e-05, -6.65284897e-05,
          -1.73349108e-05, -1.05403669e-05, 6.26184046e-05,
          5.99053346e-05, 4.26782790e-05, 3.02021908e-05, 1.01572650e-05,
          -1.50732754e-04, -1.76893955e-05, 3.84461782e-05,
          4.02983096e-05, -3.24929897e-05 ]
      - [ 2.44910829e-04, 1.60204057e-04, 3.93900322e-04,
          -6.23451269e-05, -2.74975901e-05, -1.87966907e-05,
          -3.00828633e-05, -7.47877266e-06, -3.90884561e-05,
          -6.68836292e-05, -2.29668527e-04, 1.54816793e-04,
          3.46438501e-05, -1.26366809e-04, 1.28425614e-04,
          5.60008630e-04, -1.64283047e-04, 3.06010101e-04,
          -7.16392096e-05, -1.30825265e-06, 1.94896289e-04,
          2.86849827e-04, 3.33624230e-05, -9.99604345e-06,
          6.51742812e-06, -5.49265533e-05, -1.60708922e-04,
          3.11677431e-04, 3.67659872e-04, 1.22058455e-05,
          -5.14890053e-05, -2.17510416e-04, -1.45994985e-04,
          2.90741184e-04, -1.64807774e-04, -4.31689346e-04,
          -5.09829715e-06, 1.46224251e-04, 2.40278860e-05,
          3.13063210e-05, 2.47373508e-04, 5.23651834e-05, 1.71055333e-04,
          -2.44964380e-04, -3.77956516e-04, -3.74435884e-04,
          1.41646859e-04, -4.69834631e-04, -4.58092072e-05,
          -2.12703060e-04, -1.10310946e-04, -1.03986342e-04,
          -1.71793126e-05, -7.36366710e-05, 1.05813939e-04,
          1.84131990e-04, -2.40126989e-04, -3.25175643e-04,
          4.11781875e-05, -1.94754786e-04, 6.34432436e-05,
          1.27210515e-04, 4.17902455e-04, -1.57325427e-04 ]
      - [ -7.75798981e-06, 8.35314058e-05, 8.66112168e-05,
          1.32647183e-04, -8.43020644e-07, -2.77598767e-04,
          -2.05975972e-04, -8.94918776e-06, -1.15023562e-04,
          -5.99964587e-05, 1.04758772e-04, 2.54060782e-04,
          2.56451982e-04, -5.52999081e-05, -9.55674768e-05,
          -2.71283243e-05, -3.18759470e-04, 1.38174391e-05,
          -4.71335225e-05, 2.77381303e-04, 3.45037522e-04,
          9.72254638e-05, 4.36332193e-05, -6.01443526e-06,
          -1.15607421e-04, -4.44000150e-04, -2.68847252e-05,
          1.63693127e-04, 1.92196138e-04, 7.17046569e-05,
          -9.69187895e-05, -1.42745383e-04, -9.89215914e-05,
          -2.17805049e-04, -6.74972543e-05, -2.14745713e-04,
          -9.14965713e-05, -5.83438195e-05, 3.89094057e-05,
          -5.64293550e-05, 7.10792592e-05, -2.99495587e-05,
          -2.46427317e-05, -3.48555000e-06, -1.68028768e-04,
          -6.00595340e-05, 1.48678431e-04, 1.20639743e-05,
          3.48179710e-05, 1.29740540e-04, 1.47403825e-05,
          -9.79629622e-05, -5.54520557e-05, 3.15297475e-05,
          2.68071599e-05, -2.01348830e-05, 2.64693808e-05,
          1.64305340e-04, -2.85301649e-05, -2.30066580e-04,
          -2.69917888e-04, 3.27709895e-05, 1.72703585e-04,
          7.48786697e-05 ]
      - [ -2.79863045e-04, 3.53728683e-05, 1.34726433e-04,
          2.18088346e-04, -1.86792495e-05, -2.63493894e-05,
          -1.68170664e-04, -6.37711782e-05, -1.43010519e-04,
          -9.07335489e-05, -1.76638001e-04, 1.46938895e-04,
          2.33450977e-04, 1.56254027e-04, 7.24760903e-05,
          -4.05436695e-05, -6.86287676e-05, 1.17059899e-04,
          1.29724445e-04, 1.85406156e-04, -4.10664907e-05,
          -1.19370648e-04, 1.05547500e-04, -5.69401527e-05,
          6.74835428e-06, -3.67204593e-05, 1.01811216e-04,
          1.09724579e-05, 3.78901641e-05, -1.02424041e-04,
          1.51856162e-04, -3.80349375e-05, -1.79500450e-04,
          -2.91148244e-05, -7.06917272e-05, -1.65126767e-04,
          -7.98941983e-05, 2.49146142e-05, 1.72243032e-04,
          8.41997098e-06, 3.44692744e-05, 3.42136263e-05, 6.58552290e-06,
          4.44400757e-05, -1.81342097e-04, -1.28268512e-04,
          -1.50890883e-05, 1.79704421e-05, -1.95808738e-04,
          3.80950087e-06, 4.77973990e-05, -7.65762597e-05,
          -1.26205332e-05, -3.80304882e-05, 2.93563644e-04,
          4.75179286e-06, -2.58275977e-04, -2.21676775e-04,
          1.23167381e-04, 6.25473840e-05, 6.74442572e-06, 6.83229664e-05,
          -7.72786279e-06, -2.75894534e-04 ]
      - [ -5.78558102e-05, 5.15570173e-05, 8.38733740e-06,
          -1.83732004e-06, 2.18295991e-05, 3.84712694e-05,
          5.56467567e-05, 7.61417541e-05, -5.15170141e-05,
          4.15284849e-05, 5.86390997e-05, -7.32693115e-06,
          -1.39344747e-05, -1.60213040e-05, -1.19254975e-04,
          -1.40178265e-04, 4.21960176e-05, 9.60981779e-05,
          -1.15628885e-04, -2.23098759e-05, -4.26348233e-05,
          1.28507672e-05, -3.47402201e-05, 2.32266229e-05,
          6.48593850e-05, 4.33056957e-05, 1.08122033e-04,
          -8.26711330e-05, -4.80422750e-05, -1.99205770e-05,
          5.45725634e-05, 6.24630411e-05, 1.68691593e-04, 1.02561084e-04,
          1.19749508e-04, 5.75862850e-06, -8.80418011e-05,
          -1.12714784e-04, -1.09617677e-05, 5.13240157e-05,
          1.20734534e-04, -7.47077593e-06, -1.79382681e-04,
          -2.03146061e-04, -6.43630628e-05, -2.02816482e-05,
          -2.26119791e-05, 1.04869803e-04, -5.95790480e-05,
          -1.40067204e-04, 5.64128532e-05, -1.03133498e-05,
          -2.86319755e-05, -7.44814824e-05, -9.91972411e-05,
          7.06564424e-06, 3.44062137e-05, 8.22114380e-05, 1.69210434e-05,
          5.36776934e-05, 1.31098732e-05, 5.78959443e-05, 1.13657297e-04,
          -1.90024130e-05 ]
      - [ -3.32276744e-04, -6.41956867e-05, 9.22942345e-05,
          3.83213373e-05, 5.33690181e-05, 1.28228916e-04, 2.32293518e-04,
          1.73246503e-04, -2.05739507e-05, -2.39109086e-05,
          -3.02034285e-04, 1.77475431e-05, 2.31403337e-05,
          2.79184896e-05, 1.37299730e-05, 4.38595416e-05, 1.03845596e-05,
          1.02558472e-04, -1.31035689e-04, -5.12582756e-06,
          -3.62107289e-06, 1.17993688e-04, -4.04039492e-05,
          -5.66138406e-05, -2.59563036e-04, -5.77776632e-07,
          8.57087434e-05, 2.34861393e-04, 2.66012157e-05, 1.03358820e-04,
          7.12271794e-05, -1.15997886e-04, 2.09570397e-04,
          2.06625395e-04, -8.54561513e-05, -1.56682494e-04,
          -1.14695264e-04, -1.82103948e-04, -1.19627119e-04,
          1.73630702e-04, 1.00007026e-04, -2.41726157e-04,
          3.41245359e-05, -1.65022546e-04, 7.00028477e-06,
          -5.70901720e-05, -2.45215087e-05, 4.24498940e-05,
          6.25488319e-05, -1.71349777e-04, 5.81178119e-06,
          -9.43262639e-05, 4.63162069e-05, 1.35229027e-04,
          -6.76763229e-05, -8.27955300e-05, 1.82261108e-04,
          1.27111940e-04, -5.21256588e-05, -1.89332786e-04,
          -2.03855423e-04, 4.41427655e-05, 1.04719809e-04,
          4.95453560e-06 ]
      - [ 1.62543030e-04, 1.36605609e-04, -5.50914665e-05,
          -1.81776355e-04, -1.19973665e-04, 7.02414764e-05,
          1.00836958e-04, 7.02958932e-05, 7.19347227e-05, 8.30742738e-06,
          -1.09221379e-04, -1.46290622e-04, -2.17367255e-04,
          -1.11814879e-04, -6.70319860e-05, 1.10669382e-04,
          -2.81918365e-05, -1.86007659e-04, -1.08777625e-04,
          1.72429409e-05, -4.75553934e-05, 7.66517405e-05,
          7.74463115e-05, -7.41493932e-06, 1.75737168e-05,
          3.10157011e-05, -4.48109931e-05, 3.15637226e-05,
          1.57268441e-04, 2.11515828e-04, -6.35682372e-05,
          -3.08874660e-05, 1.13025366e-04, 1.55832007e-04,
          9.45252832e-05, -4.01106217e-06, -9.92833156e-05,
          5.37263259e-05, -3.28062342e-05, 4.86075733e-05,
          -2.82140791e-05, -3.51631388e-05, 1.34619347e-06,
          -1.19060278e-04, -6.13672964e-05, -2.25430122e-04,
          -5.65730479e-05, -1.48111052e-04, 6.03145963e-06,
          -1.97796136e-04, -1.39018870e-04, 4.45547885e-05,
          1.01328442e-04, 5.72435908e-07, -3.21590414e-05,
          -1.12872709e-04, -9.06011483e-05, -2.91346714e-05,
          -5.30202560e-05, 1.58717565e-04, 1.92363717e-04,
          1.56433394e-04, 2.11129460e-04, 4.08301676e-05 ]
      - [ 4.83533222e-05, 1.99266447e-04, -6.57505952e-05,
          -1.28808402e-04, -9.49397581e-05, -4.13450398e-05,
          4.11527617e-05, 2.24340969e-04, 1.13112328e-04,
          -1.14566479e-04, -9.05064517e-05, -3.14107965e-05,
          -1.70380910e-04, -2.37494925e-04, -3.33389500e-04,
          -3.60622071e-05, -7.65156437e-05, -7.59762188e-05,
          6.25565599e-06, 1.14001457e-04, 7.84145141e-06,
          -4.99666749e-05, 1.90853279e-05, -2.14003478e-04,
          -3.34117540e-05, 7.42026969e-05, 1.45350175e-04,
          7.70025654e-05, 1.37150084e-04, 1.73370194e-04,
          -1.02991820e-04, -1.58023977e-04, 1.77481081e-04,
          1.34784223e-05, 4.12296104e-05, 2.28897152e-05,
          -2.69791693e-04, -1.78319679e-04, -4.50316984e-05,
          1.48472125e-07, -4.57181122e-05, -1.16132243e-04,
          -1.36688308e-04, -3.10468487e-04, -1.86624718e-04,
          -2.68682168e-04, 1.27788671e-05, 3.38217687e-05,
          -5.98251609e-05, -2.08373021e-04, -9.39243182e-05,
          2.25787535e-05, 9.09207884e-05, 1.34082409e-04,
          -3.77522723e-04, -8.57976556e-05, 1.86670048e-04,
          1.25992636e-04, 1.34649708e-05, 7.46919686e-05,
          -1.27621912e-04, 1.15993709e-04, 8.45480827e-05,
          8.69180949e-05 ]
      - [ -5.29951431e-05, -3.30186449e-05, -3.97305354e-04,
          -2.86222261e-04, 1.88737195e-05, 2.60757690e-04,
          1.46758161e-04, -4.73752661e-05, -9.70751644e-05,
          -2.70730059e-04, -6.18869555e-04, -3.75508826e-04,
          -1.42918754e-04, -4.93178813e-05, -9.34626660e-05,
          -1.70799947e-04, 1.96341134e-05, 2.52700193e-06,
          -4.14456226e-05, 1.90717823e-04, -2.84296460e-04,
          -4.17954470e-05, -8.77240891e-05, 1.48351741e-04,
          1.22433848e-04, 6.38615966e-05, 2.94707547e-06, 2.79135973e-04,
          1.40148710e-04, 2.25753698e-04, -2.64165283e-04,
          -6.77361386e-05, 1.86675796e-04, 1.39189200e-04,
          -1.96212704e-06, 9.55742689e-06, -4.36310278e-04,
          -4.03750309e-04, -3.51543655e-04, -3.91469293e-05,
          1.24029189e-04, 1.43736412e-04, -1.57319329e-04,
          -5.06863464e-04, -6.89135923e-04, -4.36893082e-04,
          -2.61496840e-04, -1.10392626e-04, -2.92403201e-05,
          -4.13644913e-04, 1.56647642e-04, 2.70648015e-04,
          2.86033668e-04, -8.44117894e-05, -1.39513621e-04,
          -1.38319054e-04, -1.11615918e-04, 2.33118990e-04,
          2.00425944e-04, 4.98361944e-04, 2.49755627e-04, 2.12726736e-04,
          1.15039977e-04, -4.84157827e-05 ]
      - [ -6.51528244e-05, -1.19872711e-04, -9.44087951e-05,
          1.12734881e-04, 3.33235730e-05, 5.46169249e-05, 2.59963690e-05,
          1.13283015e-04, -8.81173037e-05, -1.18599317e-04,
          -1.47130049e-04, 5.37904671e-05, 1.46474285e-05,
          1.37412544e-05, 3.63705694e-05, 1.89946441e-04,
          -2.01591858e-04, 4.46608246e-05, 1.20645273e-04,
          6.50364473e-06, 2.81650282e-05, -6.61111699e-05,
          -5.77438016e-07, 2.59981789e-05, -1.41517390e-04,
          -6.22182779e-05, 8.11954451e-05, 2.50301324e-04,
          7.14538110e-05, 8.94505938e-05, -4.91619940e-05,
          -1.22861340e-04, -1.71057818e-05, 2.28486733e-05,
          -1.37295036e-04, -7.35413851e-05, 1.70570929e-05,
          1.80950927e-04, -3.34785291e-05, 2.08949186e-05,
          -1.45754006e-04, -4.11959190e-05, 1.81873955e-04,
          1.90618375e-04, 8.88029972e-05, -1.34819902e-05,
          1.48920708e-05, 4.64631285e-06, 9.57559896e-05, 5.29562822e-05,
          7.88451325e-06, -3.21177504e-05, 1.12204565e-04,
          1.05187530e-04, 7.15473434e-05, -4.74419685e-05,
          6.85465347e-05, 4.79690825e-05, -7.96366367e-05,
          -1.39695374e-04, -9.10551535e-05, -8.34814273e-05,
          2.38735593e-05, 1.15338931e-04 ]
      - [ 1.38658535e-04, 2.03043692e-05, -3.87164509e-05,
          -8.00458292e-05, -1.02099737e-04, 1.24026583e-05,
          3.74805459e-05, 3.50942973e-05, 7.42602651e-06,
          -6.39380596e-05, -4.91323372e-05, -4.28893181e-05,
          -6.39506397e-05, 1.61988592e-05, 9.62701815e-05,
          1.67624428e-04, -6.52835661e-05, -1.06395222e-04,
          1.25901657e-04, 2.02226529e-05, 9.16959925e-06, 4.38205570e-05,
          5.11956168e-05, -4.27525156e-05, -3.79579797e-05,
          -3.55439588e-05, -8.45703908e-05, 3.58724210e-05,
          7.35244612e-05, 1.15331335e-04, 2.58877753e-05,
          -1.24042068e-04, -8.59568318e-05, -5.37257947e-05,
          8.82861059e-06, 8.86173075e-06, 4.27508567e-05, 9.51702968e-05,
          1.93156284e-05, -2.40892732e-05, -5.10915488e-05,
          -5.55802471e-05, 1.33471520e-04, 2.19413676e-04,
          3.15011348e-05, -6.16950783e-05, -3.97649746e-05,
          -1.09317669e-04, 1.20418685e-04, 5.46331103e-05,
          -4.87487741e-05, 2.88455576e-05, 1.63135410e-05,
          3.48222566e-05, 6.37445264e-05, 2.51256006e-05,
          -3.27598536e-05, -6.52306553e-05, -1.79613255e-06,
          3.98564553e-05, 6.27369518e-05, 1.95594635e-06,
          -4.06046456e-06, -5.41404916e-05 ]
      - [ 1.76604226e-04, 5.33877937e-05, -8.30461649e-05,
          1.79386607e-05, -1.00970014e-04, -1.74817993e-04,
          -8.48487107e-05, 6.12641015e-05, 6.12845251e-05,
          -3.33389507e-05, -1.34906280e-04, -2.17266381e-04,
          1.32413814e-04, 1.50383363e-04, -4.98143818e-05,
          1.43997211e-04, -3.40152241e-04, -3.60359903e-04,
          1.66565544e-04, 2.80614127e-04, 2.47371005e-04,
          -2.09958598e-05, 9.99002805e-05, 1.41987970e-04,
          -1.76797141e-04, -2.08466925e-04, 3.07650953e-05,
          3.45718057e-04, 1.14059287e-04, 2.94476224e-04,
          -2.79264295e-05, -2.64795730e-04, -1.88373931e-04,
          -3.05538182e-04, -2.39877918e-04, -1.11165020e-04,
          -3.23539061e-05, -2.10269005e-04, -1.80514849e-04,
          -2.28028512e-04, -7.79564216e-05, 1.56959013e-05,
          1.38780073e-04, 3.83102015e-04, 4.07415318e-05,
          -6.43509702e-05, -8.69559444e-05, -1.86961683e-04,
          2.16573928e-04, 2.36659573e-04, 1.55421760e-04, 1.09377572e-04,
          2.65638926e-04, 8.67412600e-05, -5.95899619e-05,
          1.07852218e-04, 1.55392408e-05, -1.24096288e-04,
          2.28085464e-05, -1.95214059e-04, -1.87462807e-04,
          -3.24643770e-04, 1.03676844e-04, 2.94640427e-04 ]
      - [ 1.44794394e-04, 1.93229480e-05, -1.08959961e-04,
          -5.34929750e-05, -6.61953018e-05, -9.18865862e-06,
          -1.11624668e-05, -4.69530532e-05, 8.56863480e-05,
          -7.55754736e-05, -1.11504909e-04, 9.51301809e-06,
          -1.35577895e-04, -1.94443819e-05, 9.07510985e-05,
          1.21389479e-04, -1.31802270e-04, -3.62552892e-05,
          1.99921880e-04, -3.83911647e-05, 5.99965897e-05,
          -6.87590073e-05, 3.28810493e-05, -1.48652587e-04,
          8.36940308e-06, -2.47533535e-05, 4.57486422e-05,
          1.18007018e-04, 1.48786376e-06, 5.00381830e-05, 1.74859688e-05,
          -5.07276127e-05, -3.60628292e-05, -7.40077085e-05,
          -1.35474664e-04, 9.05884554e-06, 8.45282648e-06,
          1.09146175e-04, 1.08175336e-04, -1.71318403e-04,
          -1.01372760e-04, 3.67826033e-05, 1.88065984e-04,
          1.88943377e-04, -6.22633670e-05, -7.54892462e-05,
          -4.71213862e-05, -6.62293969e-05, 4.29681968e-05,
          3.92351285e-05, -5.43518472e-05, 4.20888864e-06,
          6.35794568e-05, 7.70813058e-05, 1.45860540e-04, 4.86916870e-05,
          -1.48335632e-04, -1.46244405e-04, 1.46961145e-04,
          6.69878937e-05, -1.67715298e-05, -4.74816225e-05,
          7.40436735e-06, -5.21835827e-05 ]
      - [ 1.74523870e-04, 7.99721965e-05, -9.01234671e-07,
          -9.44857456e-05, -9.23360640e-05, -2.03073869e-05,
          -6.06090816e-06, 1.25350134e-05, 4.47385901e-05,
          -1.42024091e-05, 8.68060743e-05, -8.24232993e-05,
          -9.07556969e-05, -4.00871941e-05, -3.54573567e-05,
          3.09493771e-06, -3.89144407e-05, -9.55795549e-05,
          -1.25947481e-05, -2.76890114e-05, 2.09829304e-05,
          2.04799890e-05, 6.57466371e-05, 1.41929831e-05, 2.54220759e-05,
          -3.63082363e-05, -5.93072145e-05, -1.30144520e-06,
          8.19602647e-05, 1.81002724e-05, 3.59279766e-05,
          -2.73797996e-05, -4.40633739e-05, 1.52242865e-05,
          8.49607532e-05, -1.51840341e-05, -4.35434995e-05,
          1.81050546e-05, 1.71388911e-05, -8.73546669e-05,
          9.70352721e-06, 3.50916562e-05, 8.15505155e-06,
          -2.45381652e-05, -3.64042789e-05, -4.14660426e-05,
          -1.62245706e-05, -8.28564662e-05, -4.20737961e-05,
          1.40658176e-05, -3.31528972e-05, 8.00817452e-06,
          -1.29934815e-05, -1.52298308e-05, 1.01545056e-05,
          -3.65001215e-05, -7.41230760e-05, -8.57164050e-05,
          1.39493641e-05, 9.33210977e-05, 6.48059431e-05, 2.13514227e-06,
          3.96054520e-06, 1.31917450e-05 ]
      - [ 3.48301750e-04, 3.38956655e-04, -8.92468306e-05,
          -2.53704289e-04, -1.81464478e-04, -1.05787789e-04,
          -1.06775282e-04, -6.15073077e-05, 6.68338907e-05,
          8.69106661e-05, 1.57760194e-04, -8.52684752e-05,
          -2.01947660e-05, -5.36090156e-05, -2.15528751e-04,
          -3.30713054e-04, -1.31913446e-04, -8.87164351e-05,
          -3.46901447e-06, 2.59530839e-06, 7.17783914e-05,
          -1.58275489e-05, 1.12802845e-04, -1.04086525e-04,
          1.45418508e-05, -7.69867474e-05, -1.32868459e-04,
          5.55595689e-05, 9.51836118e-05, -1.12490547e-04,
          -8.36112595e-05, -4.34544381e-05, -5.45910552e-05,
          -9.04123881e-05, 1.08315959e-04, 8.25468742e-05,
          4.72988686e-05, -6.73777686e-05, -2.51337158e-04,
          -1.44609381e-04, 3.06450602e-05, 8.79495201e-05,
          -2.91280594e-05, -8.28972697e-05, -1.12403744e-04,
          -1.00162652e-04, -4.91044966e-06, -1.15314855e-04,
          -1.65585341e-04, 1.11665737e-04, -7.75488807e-05,
          -1.33115354e-05, 5.60829940e-05, -1.36303534e-05,
          -1.73380729e-04, 2.87249520e-07, 9.73901570e-06,
          -3.65195119e-05, -4.73532855e-05, 1.00655234e-04,
          4.29668944e-05, 9.67634187e-05, -3.78517361e-05,
          7.05631974e-05 ]
      - [ 1.29886626e-04, 1.07282271e-04, -1.13800328e-04,
          -7.97989196e-05, 1.24493465e-06, -3.98235134e-05,
          -1.53490237e-05, -1.96337478e-05, 4.10033463e-05,
          2.21985429e-05, 9.11339430e-06, -2.65524959e-05,
          -5.78376457e-05, -1.06284851e-05, -2.89955060e-05,
          -8.76728518e-05, -4.35753209e-05, -2.78241423e-05,
          -5.65739174e-06, 1.63103650e-05, 6.32419824e-06,
          -4.93455955e-05, 1.58114344e-05, -1.07056239e-05,
          7.75917142e-05, 8.48924810e-06, -5.37785263e-06,
          -6.06476242e-05, 6.97173755e-06, -3.67857356e-05,
          6.29403075e-05, 1.76471585e-05, -2.13030380e-05,
          -3.98342818e-05, 1.08540089e-05, -2.06891382e-05,
          -4.18836971e-05, -3.15189209e-05, 1.03267212e-05,
          -1.29873210e-04, -4.11711953e-05, 7.94059451e-05,
          3.29504678e-06, -6.91314781e-05, -9.06526548e-05,
          -1.84974633e-05, -2.96419475e-05, -2.75749426e-05,
          -4.63107754e-05, 2.66702173e-05, -3.17887971e-05,
          7.96349923e-05, -2.81051525e-05, 3.72898176e-05,
          -7.46515116e-06, 2.58978762e-05, -1.90977662e-04,
          -1.12546346e-04, 1.71162785e-04, 1.65902064e-04,
          5.50347686e-05, -5.56869600e-05, -6.98729855e-06,
          -3.92344882e-05 ]
      - [ -4.36937298e-05, -4.43848421e-06, 1.42984300e-05,
          1.64940182e-04, 1.05389023e-04, -1.09071756e-04,
          -2.36184729e-04, -1.42393372e-04, -7.04220511e-05,
          -8.66354003e-06, 1.10212777e-05, 1.53275570e-04,
          2.76221253e-04, -3.00507218e-05, -2.58019863e-04,
          -4.22093959e-04, 6.18143968e-05, -2.45200663e-05,
          7.91252678e-05, 1.29695545e-04, 1.29530863e-05,
          -1.22600613e-04, -6.20299616e-05, -4.11915062e-05,
          -1.08473447e-04, -4.44617835e-05, 2.27257828e-04,
          -8.02468821e-06, -1.96796711e-04, -2.17724984e-04,
          -9.58259407e-05, 6.22632797e-05, -1.57833099e-04,
          -8.74870966e-05, -2.01190211e-04, 2.20772927e-05,
          -1.41627359e-04, -2.06028053e-05, -1.83257362e-04,
          1.36393093e-04, -6.46242333e-05, -6.52821545e-05,
          -7.58126334e-05, -1.08102322e-04, -5.48342950e-06,
          1.30242508e-04, -3.84011000e-05, 1.13417118e-04,
          2.23845673e-05, 5.90090312e-05, 6.51351147e-05, 1.09526649e-04,
          -9.36263095e-05, 1.61620206e-04, -6.47165416e-06,
          -2.26991324e-04, 2.66336574e-04, 1.36340386e-04,
          5.16866021e-06, -2.08646277e-04, -2.26562173e-04,
          -4.37328672e-05, -1.40173521e-04, 6.42644372e-05 ]
      - [ -5.71518845e-04, -2.61388748e-04, -1.07063635e-04,
          -1.85911660e-04, 3.22841777e-04, 5.03514195e-04,
          1.62358992e-05, -4.48102772e-04, -1.75836351e-04,
          4.54530295e-04, 1.19323326e-04, 5.41509362e-04, 4.67326870e-04,
          -6.46517801e-05, -2.16480068e-04, -2.92372220e-04,
          2.94267142e-04, 4.85110388e-04, 3.37561854e-04, 3.05636640e-04,
          -1.75100780e-04, -1.02403667e-03, -9.67218017e-04,
          -5.06936864e-04, -4.53969871e-04, 1.73419336e-04,
          5.96054771e-04, -5.33009597e-06, -4.70424624e-04,
          -8.63157795e-04, 2.61508598e-04, 2.91956210e-04,
          5.97207458e-04, 5.04383817e-04, 2.48563265e-05, 8.73467943e-05,
          5.12808401e-05, -9.40515165e-05, -1.86709131e-05,
          -2.35646934e-04, 2.40214824e-04, -1.44642763e-04,
          4.43731959e-04, 5.12495862e-05, 1.42285135e-04,
          -1.88614344e-04, 3.54642631e-04, 1.02789758e-03,
          -1.81563955e-04, 4.28499683e-04, -1.10524590e-04,
          -1.10057517e-04, 5.81054555e-05, -7.35600115e-05,
          5.65212918e-04, 6.07498689e-04, -4.04179482e-05,
          -5.09454685e-06, 1.55545538e-04, 5.50116121e-04,
          -2.33604471e-04, -5.29565441e-04, -6.30413298e-04,
          -5.26796619e-04 ]
      - [ -4.88600454e-05, -9.16622739e-05, -8.05620803e-05,
          -3.23876229e-05, 1.72260698e-04, 2.08049314e-05,
          1.10157060e-04, -3.17931554e-05, -1.79615472e-05,
          4.09488712e-05, -4.50572916e-05, 3.49666989e-05,
          -2.91707311e-05, 1.48861684e-04, 2.05174423e-04,
          -4.52348177e-05, 8.24990566e-05, 1.33596841e-04,
          -4.89712947e-05, -4.43906501e-05, -1.60697418e-05,
          -1.69763895e-04, -5.82388457e-05, -6.00779022e-05,
          4.53364046e-05, 6.02430628e-05, 1.22006102e-04,
          -4.91003593e-05, -1.62863769e-04, -6.97106661e-05,
          4.74703265e-05, 1.73110282e-04, 6.58090794e-05, 2.62775648e-05,
          -2.84874532e-05, 8.64051162e-06, 2.40708596e-05,
          1.45259601e-05, 3.89790039e-05, -3.57940880e-05,
          4.60644405e-05, -2.11259758e-05, 1.13943439e-04,
          -7.94223015e-05, -1.90697217e-04, -6.78503011e-06,
          -4.07771986e-05, 6.67116765e-05, -1.62627024e-04,
          3.81410200e-06, -1.53512025e-04, 7.40301475e-05,
          -2.22414346e-05, 2.19725734e-05, 1.19943026e-04,
          1.35623879e-04, -2.51284073e-04, -1.37616211e-04,
          1.51918124e-04, 2.74018617e-04, 7.22592522e-05, 3.18707316e-05,
          1.10846348e-04, -2.45558505e-04 ]
   uncompressed_sv_total: 605
   uncompressed_support_vectors:
      - [ 2.60218823e+03, 7.21219043e+03, 6.18288428e+03, 0., 0., 0., 0.,
          0., 0., 2.30299854e+03, 6.79347046e+02, 1.37742163e+03,
          5.71063904e+02, 1.45830945e+03, 0., 9.33809433e+01,
          3.11307593e+03, 1.97678192e+02, 0., 2.67540649e+02,
          2.36111719e+03, 1.00539948e+03, 9.31268005e+02, 3.80789795e+03,
          1.46849097e+03, 1.68344879e+02, 0., 0., 1.88607153e+03,
          7.21619629e+03, 2.70295581e+03, 1.71566992e+03, 0.,
          2.70118469e+02, 0., 1.68461792e+03, 1.68774609e+03,
          2.75887842e+03, 2.77099976e+03, 6.09668115e+03, 1.20493030e+03,
          6.24679138e+02, 1.99042432e+03, 9.15382751e+02, 1.47363306e+03,
          7.00021667e+02, 1.98083789e+03, 0., 1.33955298e+03,
          2.05791870e+03, 1.77621558e+03, 4.21868213e+03, 2.83637115e+02,
          0., 7.64607239e+02, 2.46022095e+03, 1.21991675e+03,
          3.51283496e+03, 5.57750342e+03, 2.42737598e+03, 2.05216699e+03,
          8.22921600e+01, 0., 1.24611743e+03 ]
      - [ 3.44029102e+03, 4.85622656e+03, 1.68395959e+03, 1.29355420e+03,
          0., 0., 0., 0., 1.57268225e+03, 6.17427551e+02, 2.09618698e+02,
          0., 0., 5.94810867e+01, 0., 3.67235718e+03, 3.79913306e+03,
          1.27279224e+01, 0., 1.56518372e+02, 0., 0., 6.10175354e+02,
          2.91361987e+03, 1.51819775e+03, 9.84885712e+01, 0., 0., 0.,
          3.21207300e+03, 4.27006250e+03, 5.29784180e+03, 1.29453711e+03,
          1.23223366e+02, 3.25419708e+02, 0., 4.08078931e+03,
          3.05368359e+03, 2.47542334e+03, 6.68389746e+03, 1.74937036e+03,
          1.02719153e+03, 7.94637573e+02, 0., 1.42072144e+03,
          4.05842346e+02, 8.23203491e+02, 1.10176245e+03, 3.00942285e+03,
          1.42888892e+03, 7.47753906e+02, 6.22047485e+02, 7.13122803e+02,
          4.30116272e+02, 0., 1.06817517e+03, 7.56548975e+03,
          6.68650293e+03, 1.73452502e+03, 1.54451941e+03, 2.01380945e+03,
          1.98116150e+02, 0., 1.67326343e+03 ]
      - [ 3.52248975e+03, 2.64755664e+03, 1.72311279e+03, 1.32792981e+03,
          0., 0., 0., 0., 6.22009644e+02, 2.66905298e+03, 1.59716382e+03,
          1.59380051e+02, 0., 0., 0., 0., 8.98684326e+02, 0.,
          8.47230682e+01, 0., 1.14590479e+03, 6.20994385e+02,
          1.12152466e+03, 2.35355347e+03, 8.75950562e+02, 0., 0., 0.,
          1.28073242e+03, 2.38106738e+03, 1.84268872e+03, 3.16501294e+03,
          1.61009308e+02, 0., 0., 0., 2.28764404e+03, 6.78517212e+02,
          4.05598291e+03, 2.57125635e+03, 2.21002258e+02, 0.,
          4.71076752e+02, 8.26835022e+02, 1.06075447e+02, 7.11163879e+02,
          2.29704712e+03, 1.70254272e+03, 1.02996057e+03, 8.97036682e+02,
          9.93579407e+01, 2.53791187e+03, 5.18395996e+02, 1.07935165e+02,
          4.66146164e+01, 1.77047498e+03, 1.98437561e+03, 2.89404834e+03,
          1.67783728e+03, 2.02299438e+03, 5.94053833e+02, 0.,
          1.69705639e+01, 2.71111987e+03 ]
      - [ 4.68235400e+03, 1.81902222e+03, 9.78828369e+02, 1.04331641e+03,
          0., 0., 0., 0., 5.07986963e+03, 7.79358704e+02, 0.,
          8.02246857e+01, 0., 0., 0., 1.28895349e+03, 1.44393127e+03,
          1.16661903e+02, 0., 0., 0., 7.53048523e+02, 1.30550342e+03,
          3.60386865e+03, 0., 0., 0., 0., 1.19843396e+03, 1.02941772e+03,
          3.21065576e+03, 3.47089941e+03, 1.27062329e+03, 0.,
          2.44584991e+02, 1.06011951e+03, 2.11026077e+02, 8.30128540e+02,
          1.62663806e+03, 3.37106226e+03, 1.12369519e+03, 6.40640564e+02,
          4.56004333e+02, 3.23554810e+02, 0., 2.02474670e+02,
          2.01134018e+02, 2.68695264e+03, 1.68914673e+03, 2.73634106e+03,
          6.33103394e+02, 1.46828955e+03, 4.90917511e+01, 0.,
          1.59524851e+01, 1.03375085e+03, 3.30119214e+03, 3.23114087e+03,
          1.96022437e+03, 1.58781702e+03, 0., 0., 4.63249359e+01, 0. ]
      - [ 4.29504248e+03, 4.47261670e+03, 3.31525049e+03, 1.43780786e+03,
          0., 0., 0., 3.90184570e+02, 3.31889917e+03, 2.89062500e+03,
          1.28994263e+03, 0., 0., 0., 2.67089996e+02, 1.91905426e+02,
          2.48071997e+03, 7.60263138e+01, 0., 0., 6.18852112e+02,
          2.21627295e+03, 1.45480334e+03, 1.61896875e+03, 2.95803589e+03,
          8.58021011e+01, 0., 0., 2.43930957e+03, 2.55467676e+03,
          4.38114307e+03, 2.05624976e+03, 6.42122986e+02, 5.48605469e+02,
          1.02756519e+03, 2.66937280e+03, 2.46662866e+03, 1.27959363e+03,
          3.65872632e+03, 2.93844312e+03, 4.40857269e+02, 1.56034424e+03,
          0., 1.66529272e+03, 7.75743530e+02, 1.50970239e+03,
          2.75215869e+03, 4.27310181e+02, 6.52701477e+02, 0.,
          1.31410645e+03, 1.96489563e+03, 1.50082861e+03, 1.44222059e+01,
          1.64158044e+03, 2.35606445e+03, 2.47025049e+03, 2.11984229e+03,
          1.99035132e+03, 3.03276611e+03, 1.51453723e+03, 7.21803284e+01,
          1.52974121e+03, 3.42768774e+03 ]
      - [ 3.81238062e+03, 2.02568201e+03, 1.09768787e+03, 2.57090039e+03,
          2.73216626e+03, 2.01955429e+02, 0., 0., 1.80932568e+03,
          1.64052832e+03, 2.06179907e+03, 1.12119934e+03, 2.08254932e+03,
          0., 3.72615997e+02, 1.89016846e+02, 1.84708289e+03,
          5.88634968e+00, 1.12294250e+02, 4.52769241e+01, 2.58933691e+03,
          1.13595398e+03, 2.43457104e+03, 2.77874048e+03, 0.,
          1.41421342e+00, 0., 3.60555153e+01, 3.38873560e+03,
          2.55242334e+03, 2.14448877e+03, 2.64861182e+03, 2.56632019e+02,
          0., 1.95473770e+02, 2.81674707e+03, 2.39364526e+03,
          8.61667175e+02, 2.48509717e+03, 3.45997974e+03, 4.24949402e+02,
          8.71613464e+02, 7.32035400e+02, 9.53510010e+02, 1.08671643e+03,
          2.01447888e+03, 1.58782629e+03, 1.92862378e+03, 3.25308521e+03,
          1.75775940e+03, 2.35144287e+03, 1.74473157e+03, 1.25858093e+03,
          0., 0., 7.14725830e+02, 3.24815112e+03, 3.60346899e+03,
          2.03389478e+03, 4.33416992e+03, 8., 0., 0., 0. ]
      - [ 1.12320374e+03, 3.27596045e+03, 1.63126868e+03, 1.73109399e+03,
          1.69829211e+03, 0., 0., 0., 0., 3.03001758e+03, 3.62505188e+02,
          1.18785718e+03, 2.08086533e+02, 6.79615295e+02, 4.64605225e+02,
          0., 0., 1.30084579e+02, 1.96796738e+02, 1.33600781e+03,
          5.33158508e+02, 7.03045105e+02, 1.29577905e+03, 6.34717285e+02,
          1.21174756e+03, 0., 0., 0., 2.99503247e+03, 1.89495667e+03,
          1.83298560e+03, 2.03882410e+03, 0., 0., 8.45340271e+01,
          7.18401123e+02, 3.06025391e+03, 3.29042139e+03, 1.42427686e+03,
          1.09900305e+03, 0., 3.33829590e+02, 8.44757202e+02,
          5.76003479e+02, 6.59146362e+02, 2.63511768e+03, 1.52288904e+03,
          0., 1.17836646e+03, 7.65398926e+02, 1.36992651e+03,
          2.77688354e+03, 4.29287628e+02, 0., 0., 0., 1.52979626e+03,
          1.43516394e+03, 3.50140039e+03, 3.32285400e+03, 38., 0.,
          1.02459755e+02, 0. ]
      - [ 3.43305273e+03, 9.71899414e+03, 1.84234912e+03, 0., 0., 0., 0.,
          0., 8.76641296e+02, 4.75049805e+03, 8.46178528e+02, 0.,
          1.54019485e+02, 0., 0., 6.16116829e+01, 9.79177490e+02, 0., 0.,
          0., 1.49272791e+03, 6.70903870e+02, 1.24009888e+03,
          2.57036523e+03, 2.74830029e+03, 5.94251099e+02, 0.,
          1.73297424e+02, 3.11496411e+03, 1.67309375e+03, 2.66152856e+03,
          5.96006689e+03, 0., 0., 0., 1.65399609e+03, 8.92265320e+02,
          3.94901001e+03, 3.56126807e+03, 2.57123413e+03, 2.21318091e+03,
          7.07106733e+00, 4.06822021e+02, 1.44053137e+03, 6.73832336e+02,
          2.05566650e+03, 1.57174939e+03, 1.21018164e+03, 1.65043860e+03,
          2.66054785e+03, 2.21889355e+03, 2.26394653e+03, 0., 0., 0.,
          5.33666573e+01, 3.91141479e+03, 4.77275244e+03, 2.38134863e+03,
          3.23677417e+03, 0., 0., 0., 6.60110474e+02 ]
      - [ 5.31037109e+03, 2.25773706e+03, 5.04980273e+03, 4.81814746e+03,
          8.28613281e+01, 0., 4.60651703e+01, 0., 8.93985474e+02,
          1.41741602e+03, 2.89780859e+03, 2.22804840e+02, 9.24592224e+02,
          0., 1.04383093e+03, 0., 2.83789404e+03, 5.65685368e+00, 0., 0.,
          2.56456635e+02, 4.99484961e+03, 1.34836877e+03, 3.31210010e+03,
          5.24169800e+02, 0., 0., 8.02261108e+02, 5.14761230e+03,
          4.64787646e+03, 4.67083545e+03, 2.60180347e+03, 9.81053345e+02,
          1.60216589e+03, 3.11623242e+03, 3.82452490e+03, 3.05757422e+03,
          2.36966333e+03, 2.98012305e+03, 2.63882153e+03, 3.70223535e+03,
          1.77641284e+03, 2.03604968e+03, 2.31677783e+03, 3.92794214e+03,
          1.92421417e+02, 0., 0., 5.30827295e+03, 1.57651111e+03,
          1.64550513e+03, 2.03783545e+03, 3.61496533e+03, 3.62215393e+02,
          2.96984825e+01, 1.91637280e+03, 3.74452490e+03, 6.45741992e+03,
          2.88044873e+03, 5.02152100e+03, 2.70625928e+03, 0., 0.,
          3.10177399e+02 ]
      - [ 2.35539331e+03, 6.05690039e+03, 4.72966504e+03, 0., 0., 0., 0.,
          0., 2.00117896e+03, 1.23170654e+03, 2.01298547e+03, 0., 0.,
          2.16633301e+02, 0., 0., 2.06769629e+03, 4.24264069e+01,
          1.17200684e+02, 2.27284033e+03, 8.76524963e+02, 5.35111206e+02,
          2.22733032e+02, 6.72180054e+02, 2.98382544e+03, 1.10230273e+03,
          3.49322205e+02, 3.09987579e+02, 2.56565747e+03, 2.69406299e+03,
          3.54217847e+03, 2.36082593e+03, 0., 5.34197144e+02,
          1.58425317e+03, 1.81700403e+03, 8.22709534e+02, 1.43035059e+03,
          2.36564966e+03, 4.24912549e+03, 1.09526233e+03, 1.25376086e+03,
          1.73791418e+03, 1.62200928e+03, 8.09499817e+02, 4.30376617e+02,
          5.21376343e+02, 1.90055444e+03, 2.18527173e+03, 1.54336133e+03,
          2.94522778e+03, 3.05633154e+03, 0., 0., 5.97467163e+02,
          1.75002466e+03, 1.63624597e+03, 3.51008374e+03, 4.37562500e+03,
          4.05577563e+03, 0., 0., 0., 0. ]
      - [ 3.46501343e+03, 1.34595935e+03, 6.60979492e+03, 1.70598438e+03,
          0., 0., 0., 1.12285355e+02, 1.52391113e+03, 1.74248218e+03,
          2.58743970e+03, 0., 0., 0., 0., 0., 2.43847119e+03,
          1.34648718e+03, 0., 0., 0., 0., 2.35083817e+02, 1.44566370e+03,
          3.84410522e+03, 1.40505298e+03, 2.33581079e+03, 4.20469910e+02,
          6.77446167e+02, 7.30564697e+02, 1.72392175e+03, 2.62379443e+03,
          6., 0., 0., 1.78088733e+03, 3.47592554e+03, 1.86615088e+03,
          3.87262012e+03, 1.38565894e+03, 2.26221130e+02, 3.79230804e+02,
          2.18549759e+02, 2.48892358e+03, 2.58320557e+03, 8.99975769e+02,
          6.05607178e+02, 1.40712158e+03, 9.86928955e+02, 4.63864160e+03,
          2.69183899e+02, 0., 0., 0., 3.00946777e+02, 2.19440283e+03,
          2.07789209e+03, 2.01601892e+03, 2.65046606e+03, 1.13207764e+03,
          3.84783081e+02, 7.44324219e+02, 8.30753418e+02, 1.94485461e+03 ]
      - [ 2.58622827e+03, 1.35120386e+03, 3.68913989e+03, 1.11890308e+03,
          0., 0., 0., 0., 2.82446442e+02, 0., 3.07626404e+02,
          1.37295303e+02, 6.84527344e+02, 4.42307434e+02, 1.45247168e+03,
          2.30653418e+03, 8.79915137e+03, 1.76669052e+02, 0., 0.,
          6.99968567e+02, 0., 1.05989844e+03, 0., 5.57957324e+03, 0., 0.,
          1.71365625e+03, 1.41318408e+03, 1.07879602e+03, 7.99543884e+02,
          1.19863708e+03, 1.01580615e+03, 0., 0., 1.78393384e+03,
          1.86694971e+03, 1.09927124e+03, 4.77416797e+03, 2.53219238e+03,
          2.25883569e+03, 3.21422852e+03, 4.95889069e+02, 0.,
          7.43462585e+02, 3.84096375e+02, 4.37383698e+02, 1.47025781e+03,
          1.80353479e+03, 2.66313525e+03, 3.79987305e+03, 0.,
          3.33766365e+01, 9.48261642e+01, 2.60863953e+02, 1.99819275e+03,
          5.93210791e+03, 4.08822363e+03, 1.83892432e+03, 2.77923779e+03,
          4.79416321e+02, 0., 6.00333252e+01, 1.50484290e+03 ]
      - [ 3.13355542e+03, 2.55960645e+03, 3.75615417e+02, 1.16332800e+03,
          0., 0., 0., 0., 2.63604932e+03, 1.25607849e+03, 3.32929413e+02,
          0., 0., 0., 0., 1.01805762e+03, 1.43523975e+03, 3.20315460e+02,
          0., 0., 6.81916382e+02, 9.14049255e+02, 0., 1.29038574e+03,
          1.15993591e+03, 0., 0., 8.54400330e+01, 1.34116187e+03,
          7.75074707e+02, 1.72128711e+03, 2.27699561e+03, 1.03997876e+03,
          0., 3.49284973e+01, 0., 6.54987427e+02, 1.82396387e+03,
          1.72797534e+03, 2.21488965e+03, 6.56002991e+02, 3.00734985e+02,
          4.87165253e+02, 3.78208923e+02, 0., 0., 1.23583887e+03,
          1.07522656e+03, 1.50374231e+03, 2.73467383e+03, 6.13098694e+02,
          5.33810791e+02, 0., 0., 5.65685368e+00, 0., 3.66898584e+03,
          2.87221924e+03, 1.77661047e+03, 7.38075867e+02, 0., 0., 0., 0. ]
      - [ 5.62380078e+03, 4.81929004e+03, 7.29729297e+03, 2.47687964e+03,
          0., 0., 0., 1.84390888e+01, 4.81040535e+01, 1.32151868e+03,
          3.08249048e+03, 1.46750012e+03, 2., 0., 0., 0., 1.87539771e+03,
          0., 0., 2.01606409e+03, 1.21321497e+03, 1.78705347e+03,
          8.97587952e+02, 5.49102844e+02, 1.51494482e+03, 5.67367249e+02,
          1.35951080e+02, 8.65555176e+02, 3.76859985e+03, 2.57482812e+03,
          8.39589551e+03, 3.40444238e+03, 1.47336646e+03, 3.85253143e+02,
          7.92315613e+02, 6.77043701e+02, 2.81813574e+03, 2.48377002e+03,
          3.02623022e+03, 8.64674121e+03, 1.78996472e+03, 3.50087952e+02,
          1.35379517e+03, 1.77627893e+03, 0., 0., 1.51856372e+03,
          2.17968286e+03, 0., 3.11306177e+03, 2.39759473e+03,
          1.98788354e+03, 0., 0., 1.03391724e+02, 1.87424097e+03,
          8.57054980e+03, 1.27754858e+03, 1.61830542e+03, 7.21474268e+03,
          3.04146301e+02, 0., 0., 0. ]
      - [ 6.39044385e+03, 3.97740796e+03, 1.35033643e+03, 9.55931274e+02,
          7.91854797e+02, 1.46037122e+03, 0., 1.30297913e+03,
          8.05358838e+03, 0., 0., 0., 0., 0., 0., 4.00510864e+02,
          6.99611084e+02, 9.89949512e+00, 0., 1.71221838e+03,
          3.34293304e+02, 7.89227478e+02, 0., 4.64128857e+03,
          6.16116882e+02, 0., 0., 0., 1.93724878e+03, 3.96784082e+03,
          4.16474854e+03, 4.67993750e+03, 3.37116919e+03, 4.18502106e+02,
          1.25286353e+03, 3.26459839e+02, 1.17809631e+03, 2.32770166e+03,
          2.26890894e+03, 2.65225098e+03, 3.25916431e+03, 5.82897400e+02,
          2.69072495e+01, 0., 0., 0., 1.88714575e+03, 2.80113403e+03,
          1.43763184e+03, 2.85738159e+03, 3.81971704e+03, 0., 0.,
          3.36154747e+01, 0., 0., 5.33700732e+03, 4.15232861e+03,
          3.37674072e+03, 3.84062549e+03, 0., 0., 0., 0. ]
      - [ 3.67045605e+03, 4.67382422e+03, 8.02428223e+03, 1.86711890e+03,
          0., 0., 0., 1.57835373e+02, 1.48690320e+03, 1.70777637e+03,
          4.73488428e+03, 0., 0., 0., 0., 0., 1.85731213e+03,
          1.62413055e+02, 0., 0., 1.77694727e+03, 3.51909839e+03,
          1.81058838e+03, 0., 0., 0., 0., 0., 4.08947388e+03,
          4.72333936e+03, 6.23403906e+03, 1.81273376e+03, 1.85769409e+03,
          7.07517578e+02, 4.71425537e+02, 8.46275330e+02, 1.49673279e+03,
          3.30912769e+03, 5.58001025e+03, 5.24218359e+03, 1.37246191e+03,
          1.56800598e+03, 1.32341638e+03, 3.80087921e+02, 0.,
          6.45479309e+02, 3.06992822e+03, 2.94976001e+03, 0.,
          3.26525586e+03, 1.34389722e+03, 3.08949487e+03, 4.06276123e+03,
          8.98109131e+01, 1.13137074e+01, 4.59009766e+02, 4.02762842e+03,
          4.62116357e+03, 3.61208350e+03, 8.10194336e+03, 9.10584183e+01,
          0., 0., 0. ]
      - [ 5.35132227e+03, 9.19705957e+03, 1.40902856e+03, 6.48063843e+02,
          0., 1.20830460e+01, 0., 0., 0., 2.37928589e+02, 9.20977631e+01,
          0., 10., 0., 0., 0., 4.60342822e+03, 1.47648249e+01, 0., 0.,
          2.70682373e+02, 5.68330566e+02, 0., 2.37507889e+02,
          5.16480408e+02, 7.71109253e+02, 1.21655258e+02, 0.,
          2.03135229e+03, 6.25239551e+03, 2.77466772e+03, 3.31120361e+03,
          0., 0., 0., 0., 2.05294604e+03, 1.48939026e+03, 8.14340088e+03,
          5.40489746e+03, 1.72908264e+02, 5.93976440e+02, 2.44806046e+02,
          0., 8.73791748e+02, 0., 3.80573273e+02, 0., 0., 5.34222778e+02,
          1.50416992e+03, 8.02653870e+02, 0., 0., 5.67133789e+02,
          2.91171973e+03, 4.52472412e+03, 3.09085742e+03, 5.92629102e+03,
          3.57244458e+03, 0., 0., 3.71534790e+02, 6.43000793e+02 ]
      - [ 2.77398096e+03, 3.86420215e+03, 3.91983887e+03, 4.01834644e+03,
          0., 0., 0., 0., 0., 2.22483301e+03, 1.59450549e+03,
          1.47863257e+03, 0., 0., 2.82842684e+00, 0., 1.27002673e+03,
          8.42721100e+01, 1.96621490e+02, 1.47863843e+03, 9.31996765e+02,
          1.11818579e+03, 8.35418457e+02, 2.65198029e+02, 3.16094116e+03,
          5.15321289e+02, 8.40594940e+01, 0., 4.35784326e+03,
          3.32785278e+03, 1.93966785e+03, 4.08645142e+03, 2.01717621e+02,
          0., 1.87378723e+03, 1.01843591e+03, 1.35095764e+03,
          2.57638135e+03, 1.30037585e+03, 7.23319971e+03, 3.16950775e+02,
          1.08452744e+02, 0., 0., 6.09066528e+02, 1.21575610e+03,
          1.35126758e+03, 9.19535767e+02, 1.31569543e+03, 1.32732007e+03,
          2.19569238e+03, 0., 0., 0., 9.92208710e+01, 4.74908643e+03,
          2.03759985e+03, 2.78628198e+03, 2.52441528e+03, 4.05769141e+03,
          7.07106733e+00, 0., 0., 2.36896533e+03 ]
      - [ 6.08152893e+02, 2.84871436e+03, 8.12324658e+03, 3.32903516e+03,
          0., 0., 0., 0., 1.56894867e+02, 1.10992297e+03, 1.14377283e+03,
          2.00132599e+02, 0., 0., 1.49702319e+03, 2.79969458e+03,
          3.98616577e+03, 5.07740097e+01, 0., 3.27074921e+02,
          2.56511548e+03, 1.28225427e+03, 8.84182129e+02, 2.85236755e+02,
          1.89644885e+03, 4.46285449e+03, 0., 0., 3.80053491e+03,
          6.23190625e+03, 2.13124341e+03, 4.01195508e+03, 0.,
          4.95782166e+01, 0., 2.01797266e+03, 3.24781689e+03,
          5.57550293e+03, 4.11017139e+03, 1.97124976e+03, 3.10883594e+03,
          1.12357739e+03, 0., 0., 8.52976074e+02, 1.46314978e+03,
          5.91797974e+02, 3.23109894e+01, 2.23793164e+03, 2.05280957e+03,
          8.33576599e+02, 1.97788135e+03, 1.85326721e+02, 0.,
          1.98010086e+02, 3.89574170e+03, 2.98551416e+03, 4.95120508e+03,
          5.26410693e+03, 2.72662891e+03, 1.92031702e+03, 1.07095422e+03,
          1.00790234e+03, 1.97525000e+03 ]
      - [ 2.68400146e+03, 6.25797119e+03, 5.95778711e+03, 1.87146570e+03,
          0., 0., 0., 0., 1.83790967e+03, 2.96295752e+03, 2.29962451e+03,
          2.05197693e+02, 0., 9.54148788e+01, 0., 0., 3.59765350e+02, 0.,
          0., 1.67142505e+03, 1.89539197e+03, 9.35479553e+02,
          8.04061646e+02, 7.53159973e+02, 2.26668799e+03, 1.31603223e+03,
          0., 0., 5.10508936e+03, 2.22455249e+03, 4.26520752e+03,
          4.65339551e+03, 1.39769800e+03, 0., 1.16517151e+03, 0.,
          6.03072607e+03, 4.19731396e+03, 7.49040100e+02, 2.16072559e+03,
          3.78470337e+03, 7.60452515e+02, 3.34212494e+02, 2.58622998e+03,
          8.12009827e+02, 6.09776978e+02, 1.04293042e+03, 2.15365161e+03,
          2.69907422e+03, 1.29926794e+03, 1.28134851e+03, 7.95181702e+02,
          2.01178027e+03, 2.68923798e+02, 1.39489001e+03, 1.45062256e+03,
          1.82370667e+03, 4.88381055e+03, 2.82563696e+03, 3.77193994e+03,
          1.82544287e+03, 0., 2.51765762e+02, 1.50436084e+03 ]
      - [ 4.89146338e+03, 4.03950098e+03, 1.44277661e+03, 9.28040649e+02,
          0., 0., 0., 0., 0., 4.39829498e+02, 0., 0., 0., 0.,
          1.94270325e+02, 3.76107739e+03, 2.27430566e+03, 1.10923401e+02,
          0., 0., 3.05368622e+02, 1.16516090e+02, 3.30151459e+02,
          1.13712512e+03, 6.88600037e+02, 2.34546371e+02, 0.,
          1.41795624e+02, 1.74993677e+03, 1.64775879e+03, 1.04091882e+03,
          7.90650391e+03, 0., 0., 0., 6.89492569e+01, 9.12134338e+02,
          1.48146997e+03, 1.95227905e+03, 1.04648057e+04, 4.66921173e+02,
          0., 0., 0., 2.65699066e+02, 6.67216797e+02, 0., 0.,
          1.40481274e+03, 3.58022369e+02, 3.12166626e+02, 3.56252716e+02,
          0., 0., 2.23738144e+02, 5.32850488e+03, 5.16102734e+03,
          1.45039941e+03, 1.36056860e+03, 2.44711670e+03, 90., 0.,
          4.19447235e+02, 4.29516022e+02 ]
      - [ 5.28478333e+02, 7.20924707e+03, 5.59131104e+03, 1.88724084e+03,
          1.08178601e+03, 7.80371704e+02, 1.97989902e+01, 0., 0.,
          4.40986475e+03, 2.27022559e+03, 0., 0., 0., 0., 0.,
          1.98822388e+03, 1.41421342e+00, 0., 2.18309399e+03,
          9.94361084e+02, 1.23005920e+03, 1.56775952e+03, 0.,
          2.04051587e+03, 2.28958276e+03, 9.63327484e+01, 0.,
          3.76520020e+03, 6.20292041e+03, 4.13361768e+03, 1.56554163e+03,
          1.81924316e+03, 9.97400452e+02, 1.63700928e+03, 1.42535474e+03,
          1.28715955e+03, 1.77383923e+03, 2.98453809e+03, 7.33081592e+03,
          12., 0., 1.54021509e+03, 5.94810867e+01, 1.05990555e+02,
          7.58221619e+02, 2.78004980e+03, 9.04682312e+02, 3.64601636e+03,
          2.07463916e+03, 1.56543994e+03, 1.42901282e+03, 0., 0.,
          2.88444118e+01, 3.53067163e+03, 1.94711206e+03, 6.12435547e+03,
          1.57476990e+03, 2.84270361e+03, 2.86621729e+03, 0., 0.,
          3.80189453e+02 ]
      - [ 3.16330127e+03, 2.12491309e+03, 1.54364587e+03, 3.58718433e+03,
          1.81520691e+03, 0., 0., 0., 2.52352832e+03, 1.66527454e+03,
          1.21061011e+03, 1.22055920e+03, 1.84750525e+03, 0.,
          5.58883545e+02, 3.43284326e+03, 2.35015991e+03, 9.59012512e+02,
          4.77428467e+02, 2.23036108e+03, 2.91628345e+03, 2.27654883e+03,
          8.67286499e+02, 7.55584167e+02, 5.81520203e+02, 5.85853210e+02,
          3.89307098e+02, 0., 7.32340723e+03, 1.98856409e+03,
          2.24215942e+03, 9.82549255e+02, 1.77494360e+03, 0., 0., 0.,
          4.02959082e+03, 3.75414893e+03, 6.89263477e+03, 1.81139099e+03,
          1.73171082e+03, 1.41421342e+00, 0., 0., 1.75692859e+03,
          3.04398218e+03, 1.49746497e+03, 1.78626123e+03, 2.41788477e+03,
          1.60695789e+03, 2.64728540e+03, 1.49186353e+03, 0., 0., 0.,
          6.80294037e+01, 7.25450049e+03, 3.30576855e+03, 2.73262646e+03,
          5.48971631e+03, 0., 0., 0., 2.63383862e+03 ]
      - [ 4.94986621e+03, 4.07131616e+03, 4.41386182e+03, 0., 0., 0., 0.,
          0., 4.37064941e+03, 7.84967041e+02, 0., 0., 0., 0., 0.,
          4.88447083e+02, 1.57032666e+03, 0., 0., 0., 4.12326630e+02,
          8.22976318e+02, 1.40883630e+03, 1.47194824e+03, 1.54044507e+03,
          0., 0., 4.55411911e+01, 6.83520203e+01, 3.17457861e+03,
          5.31096289e+03, 3.94741113e+03, 1.30777881e+03, 0.,
          3.71712219e+02, 1.60112097e+03, 1.60137952e+03, 1.81076379e+03,
          2.33455957e+03, 4.69890723e+03, 2.98141992e+03, 3.54066772e+02,
          4.76030884e+02, 6.31585327e+02, 9.37837463e+02, 0.,
          1.16775391e+03, 2.02518250e+03, 2.66162256e+03, 1.15304382e+03,
          1.11001465e+03, 1.11824268e+03, 4.73026428e+02, 0.,
          8.72353134e+01, 1.67191602e+03, 6.98438037e+03, 1.67822546e+03,
          1.85012073e+03, 1.65147986e+03, 2.03954150e+03, 0., 0., 0. ]
      - [ 5.18949829e+02, 1.36734775e+04, 1.75816101e+03, 1.88135840e+03,
          0., 0., 0., 0., 0., 5.17751074e+03, 1.47512903e+03, 0., 0.,
          4.91934967e+01, 40., 0., 4.73316699e+03, 9.07854614e+01, 0.,
          0., 3.40948340e+03, 2.46491553e+03, 8.72378357e+02,
          6.62398315e+02, 2.36552588e+03, 3.18077686e+03, 0., 0.,
          5.27632031e+03, 3.95603003e+03, 3.12680078e+03, 2.39204736e+03,
          0., 0., 0., 0., 1.87357324e+03, 1.72297034e+03, 1.41963105e+04,
          0., 0., 0., 6.40312424e+01, 1.90201868e+03, 4.86620941e+01,
          1.44737073e+03, 3.72776416e+03, 7.94241760e+02, 4.99315521e+02,
          1.26258203e+03, 9.19373901e+02, 2.92189062e+03, 1.82042432e+03,
          0., 2.97778198e+02, 4.89719287e+03, 2.23409131e+03,
          3.10817505e+03, 2.35156421e+03, 6.85200928e+03, 0., 0.,
          6.23883324e+01, 5.62926611e+03 ]
      - [ 2.77140161e+03, 1.85507532e+03, 4.01000586e+03, 3.17239673e+03,
          1.62684338e+03, 0., 0., 0., 1.34164160e+03, 1.74230762e+03,
          1.52733936e+03, 2.03168176e+03, 7.74764954e+02, 8.03853271e+02,
          4.42574280e+02, 0., 3.80188660e+02, 1.20663086e+02, 0.,
          1.62468567e+03, 2.99175464e+03, 1.57158655e+03, 7.36092285e+02,
          2.27101807e+03, 0., 1.13137074e+01, 9.46678391e+01,
          1.62355298e+03, 5.46049512e+03, 1.70791821e+03, 1.55842249e+03,
          4.16851465e+03, 0., 0., 0., 0., 5.10064600e+03, 7.93629199e+03,
          1.37137219e+03, 5.94516602e+02, 2.45589111e+02, 0., 0., 0.,
          4.29431934e+03, 4.02425977e+03, 0., 3.39106293e+02, 0.,
          7.06508362e+02, 9.96287781e+02, 6.23224316e+03, 0., 0., 0., 0.,
          1.66156030e+03, 1.81590259e+03, 5.50798340e+03, 6.10661084e+03,
          40., 0., 1.72286682e+02, 1.58566724e+03 ]
      - [ 2.25440210e+03, 6.37073779e+03, 2.69398682e+03, 7.47572083e+02,
          0., 0., 0., 0., 1.56484290e+03, 2.05807422e+03, 1.54212463e+03,
          5.56596802e+02, 6.66432312e+02, 4.41900970e+02, 2.31607407e+02,
          0., 2.99603857e+03, 4.21016045e+01, 0., 1.44416870e+03,
          1.91599866e+03, 6.80617371e+02, 8.47951172e+02, 1.76786487e+03,
          1.81485632e+03, 1.61919449e+02, 8.76584320e+01, 1.07761060e+03,
          2.02112671e+03, 2.97244019e+03, 1.82321875e+03, 1.65406482e+03,
          0., 1.85396866e+02, 0., 9.71428833e+02, 2.54760010e+03,
          3.92209570e+03, 2.12448633e+03, 3.20745850e+03, 5.09901953e+00,
          5.34138794e+02, 1.51114355e+03, 0., 1.15926990e+03,
          2.26839697e+03, 1.20959790e+03, 8.45659546e+02, 2.11596655e+03,
          2.01756763e+03, 2.78134473e+03, 7.04251343e+02, 22.,
          1.00767067e+02, 0., 1.27679260e+03, 2.78384570e+03,
          3.96682007e+03, 4.51672021e+03, 1.48544629e+03, 0., 0., 0.,
          1.29215503e+03 ]
      - [ 7.21985742e+03, 2.92919238e+03, 2.62391602e+03, 8.63366333e+02,
          3.78979028e+03, 7.99249649e+01, 0., 0., 2.19979272e+03,
          1.48137183e+03, 4.64754700e+02, 0., 2.70462354e+03,
          1.15923425e+03, 0., 0., 3.15254102e+03, 0., 0., 0.,
          2.49168408e+03, 1.11760486e+03, 3.28672266e+03, 1.69390906e+03,
          3.22823511e+03, 0., 0., 0., 5.40935059e+03, 2.83220410e+03,
          2.88874243e+03, 4.52571875e+03, 0., 0., 9.79489594e+01,
          4.51933643e+03, 1.83507117e+03, 4.44362012e+03, 3.90872729e+03,
          3.31537842e+03, 2.54933203e+03, 2.01216174e+03, 1.28053271e+03,
          6.08126587e+02, 7.43732361e+02, 3.43652954e+03, 2.05825122e+03,
          2.31472461e+03, 1.60382251e+03, 2.74643750e+03, 3.34004517e+03,
          5.20575684e+03, 6., 0., 0., 1.25306860e+03, 1.42938599e+03,
          5.42698145e+03, 4.78665088e+03, 7.00794336e+03, 380., 0.,
          7.07106733e+00, 1.62508496e+03 ]
      - [ 8.20673047e+03, 6.01085889e+03, 9.80135376e+02, 4.41454407e+02,
          2.79999981e+01, 0., 1.97989902e+01, 2.48084671e+02,
          2.67411328e+03, 0., 4.52769241e+01, 0., 0., 0., 0., 0.,
          5.68418506e+03, 0., 5.79827576e+01, 4.74341621e+01, 0.,
          8.47138977e+02, 1.12814697e+03, 1.85175232e+03, 2.95579810e+03,
          0., 0., 4.50234375e+02, 3.43767578e+03, 2.19761133e+03,
          1.80810107e+03, 3.72297852e+03, 1.66433167e+02, 0., 0., 0.,
          1.89884875e+03, 2.65057568e+03, 6.97065283e+03, 3.76500195e+03,
          1.81992712e+03, 1.59004028e+03, 5.83000854e+02, 5.85431458e+02,
          4.31335175e+02, 2.33383835e+02, 2.12930786e+03, 2.13747217e+03,
          3.15623975e+03, 1.32717114e+03, 1.27542114e+03, 8.52502136e+02,
          1.54380786e+03, 0., 0., 2.65190796e+03, 7.32487207e+03,
          5.52166077e+02, 2.53217432e+03, 5.53279443e+03, 4.33001190e+02,
          0., 0., 1.50588269e+03 ]
      - [ 3.96426050e+03, 7.76683838e+03, 0., 0., 0., 0., 0., 0.,
          1.02900830e+03, 0., 0., 0., 0., 0., 0., 2.21531036e+02,
          4.77738672e+03, 1.41421342e+00, 0., 0., 0., 1.47864282e+03,
          5.74421509e+02, 5.90716492e+02, 1.37889490e+03, 1.63487927e+03,
          8.87298462e+02, 0., 1.58037781e+03, 2.41992773e+03,
          1.98154260e+03, 2.92663135e+03, 0., 9.46446594e+02,
          1.56249634e+03, 0., 1.58897009e+03, 7.27377319e+02,
          5.69516943e+03, 3.09752026e+03, 3.52634790e+03, 7.76865417e+02,
          1.04708948e+03, 0., 0., 5.18808228e+02, 6.61508850e+02,
          4.27338257e+02, 1.35128955e+03, 1.62480359e+03, 0.,
          7.59876343e+02, 1.51750146e+03, 0., 3.72209564e+02,
          3.40801855e+03, 5.72612646e+03, 2.08514575e+03, 2.73817358e+03,
          2.41075586e+03, 1.59961450e+03, 1.60312195e+02, 6.33618225e+02,
          3.67144458e+03 ]
      - [ 2.02585608e+03, 5.11542285e+03, 4.11404980e+03, 1.96902710e+03,
          0., 2.06813919e+02, 1.53421606e+03, 1.78403613e+03,
          1.95576080e+02, 1.65023096e+03, 1.41187891e+03, 0., 0., 0., 0.,
          3.33723022e+03, 3.89777832e+03, 0., 0., 0., 8.00384888e+02,
          1.12030811e+03, 8.56851196e+02, 3.49675659e+03, 4.43935394e+02,
          3.90192017e+03, 0., 0., 1.70070093e+03, 4.91281055e+03,
          4.44004150e+03, 3.84091504e+03, 1.18693140e+03, 0., 0.,
          1.97470728e+03, 1.99982910e+03, 5.71647803e+03, 2.61833838e+03,
          5.53349463e+03, 4., 2.82842684e+00, 7.29859131e+02,
          3.42094043e+03, 9.52631104e+02, 1.06853162e+03, 0.,
          3.39522412e+03, 5.04888037e+03, 2.77909717e+03, 1.19887659e+03,
          8.31534790e+02, 1.86072473e+03, 0., 1.32378235e+02,
          1.21655235e+01, 7.09593896e+03, 6.61603711e+03, 2.50337964e+03,
          1.79759436e+03, 1.84770337e+03, 0., 0., 0. ]
      - [ 4.62720068e+03, 3.26977051e+03, 9.72773376e+02, 1.26813745e+03,
          1.58398224e+02, 0., 5.47424927e+02, 8.56002319e+02,
          3.57174780e+03, 4.85571838e+02, 0., 0., 0., 0., 7.21476257e+02,
          1.03365906e+03, 1.78389392e+03, 0., 0., 7.59605103e+01, 0., 0.,
          2.06694482e+03, 3.00230444e+03, 0., 0., 0., 0., 0.,
          3.18348706e+03, 3.89710791e+03, 3.18421631e+03, 0., 0., 0.,
          8.52877579e+01, 1.30451758e+03, 1.47154272e+03, 4.92865723e+03,
          4.59716211e+03, 4.14004883e+02, 7.72297302e+02, 4.84148712e+01,
          2.40333099e+02, 0., 9.18812805e+02, 1.77935901e+03,
          4.27992285e+03, 1.40519226e+03, 1.69720947e+03, 1.25606030e+03,
          4.38036499e+02, 1.42583154e+03, 3.82800201e+02, 4.41921417e+02,
          5.25441650e+02, 4.40042676e+03, 4.17535156e+03, 1.53492383e+03,
          1.21965771e+03, 1.88724854e+03, 0., 0., 8.73265320e+02 ]
      - [ 3.92655615e+03, 4.20081836e+03, 3.81544507e+03, 2.03376257e+03,
          2.98694604e+03, 8.71027832e+02, 0., 3.39320862e+02,
          7.31312500e+02, 8.57848389e+02, 1.74826465e+03, 5.59710889e+03,
          0., 0., 0., 0., 3.45935400e+03, 2.40416298e+01, 8.60232544e+00,
          0., 4.21664062e+03, 2.44073682e+03, 1.57488098e+03,
          1.64700879e+03, 1.70140430e+03, 4.60434608e+01, 0.,
          1.91579358e+03, 4.65457812e+03, 4.98239453e+03, 2.77135522e+03,
          1.81215466e+03, 0., 0., 0., 0., 7.31936914e+03, 5.58632422e+03,
          3.14748413e+03, 1.55762109e+03, 0., 0., 0., 1.70501831e+03,
          2.46203198e+03, 3.87963794e+03, 1.59615356e+03, 0.,
          1.58537256e+03, 6.58764343e+02, 9.05920471e+02, 6.78860107e+03,
          6.43062988e+02, 0., 0., 1.74714893e+03, 2.23906763e+03,
          1.25029919e+03, 6.88298242e+03, 7.10452344e+03, 1.76815338e+02,
          0., 1.69067307e+02, 1.70473535e+03 ]
      - [ 3.46541553e+03, 1.90719116e+03, 9.61836426e+03, 1.71381531e+03,
          0., 0., 0., 0., 0., 1.46259485e+03, 4.32310352e+03,
          2.65409229e+03, 0., 6.44980621e+01, 0., 0., 1.37038110e+03,
          1.65529461e+01, 7.07248154e+01, 0., 3.70579077e+03,
          1.81438354e+03, 1.77532910e+03, 7.71569153e+02, 2.44326001e+03,
          1.66076706e+02, 0., 0., 4.61784961e+03, 4.07141138e+03,
          3.15705786e+03, 3.35843530e+03, 2.89389008e+02, 9.23146896e+01,
          1.99529434e+02, 3.65221045e+03, 3.39705780e+02, 2.46905688e+03,
          9.51484277e+03, 1.74575195e+03, 0., 4.24734955e+01,
          3.15683380e+02, 1.68646899e+03, 2.36133740e+03, 2.22587012e+03,
          2.08222998e+03, 9.56280334e+02, 1.27013745e+03, 2.03953796e+03,
          3.00061450e+03, 3.22107983e+03, 0., 2.33238087e+01, 0.,
          9.48741882e+02, 4.06266406e+03, 4.87422510e+03, 3.23040039e+03,
          3.18756250e+03, 1.64277014e+03, 6.93108902e+01, 1.69705639e+01,
          1.77727148e+03 ]
      - [ 8.75854883e+03, 1.14001038e+03, 1.39977759e+03, 7.53329956e+02,
          1.66842737e+03, 2.76366187e+03, 1.27279224e+01, 3.05722107e+02,
          4.34767090e+03, 1.61946387e+03, 3.85319031e+02, 5.52342224e+02,
          0., 6.18820740e+02, 8.12916992e+02, 4.22733978e+02,
          1.86956128e+03, 0., 1.49833237e+02, 3.50801660e+03,
          9.35128906e+02, 5.05751099e+02, 6.71268738e+02, 8.67732727e+02,
          4.92358154e+03, 2.05138977e+02, 4.83321838e+01, 3.40960693e+03,
          1.74820398e+03, 4.96291357e+03, 1.38723254e+03, 4.78659424e+03,
          0., 5.95227844e+02, 1.42894012e+02, 4.72545850e+03,
          7.48501038e+02, 3.46973950e+03, 5.00781836e+03, 1.67439148e+03,
          0., 1.75413803e+02, 1.62833350e+03, 1.92380029e+03,
          1.03446973e+03, 1.61834766e+03, 7.33006165e+02, 2.51905273e+03,
          1.60750818e+03, 3.39187207e+03, 3.34195361e+03, 2.40303125e+03,
          0., 0., 0., 8.22192154e+01, 3.39418896e+03, 4.53399365e+03,
          6.67936914e+03, 3.63589307e+03, 0., 0., 0., 1.25195854e+02 ]
      - [ 2.33913770e+03, 4.55827295e+03, 4.76935498e+03, 4.21767529e+03,
          2.97919464e+02, 0., 0., 0., 0., 1.89171875e+02, 2.21468555e+03,
          2.87906543e+03, 4.45764496e+02, 0., 0., 2.82109894e+02,
          3.46655859e+03, 0., 0., 0., 1.68872998e+03, 5.18012354e+03,
          8.33809448e+02, 1.49692944e+03, 8.10061722e+01, 1.74097388e+03,
          5.20842407e+02, 0., 6.19323389e+03, 5.47543945e+03,
          2.58354492e+03, 8.34112427e+02, 0., 0., 0., 0., 5.63597412e+03,
          4.44133789e+03, 6.06858887e+03, 9.27190430e+02, 0., 0.,
          3.80829315e+02, 3.76391455e+03, 1.66616162e+03, 1.63416309e+03,
          2.12840479e+03, 2.74029175e+02, 2.29531348e+03, 1.09101233e+03,
          2.86304370e+03, 3.29751904e+03, 1.67437207e+03, 0.,
          3.95979805e+01, 3.78289990e+03, 1.79827295e+03, 4.68400928e+03,
          4.46352246e+03, 1.92145996e+03, 3.41961987e+03, 1.28763351e+02,
          1.95167160e+02, 1.79397034e+03 ]
      - [ 4.50829590e+03, 3.55316235e+03, 4.98620654e+03, 6.00818848e+03,
          0., 0., 0., 0., 9.25406921e+02, 2.23192432e+03, 1.92578638e+03,
          1.43561401e+03, 4.07237280e+03, 8.37670975e+01, 0.,
          7.13622437e+02, 5.19953796e+02, 2.82842684e+00, 4.47600891e+02,
          2.17504419e+03, 2.24835425e+03, 1.69697058e+03, 2.06269824e+03,
          8.51400879e+02, 2.15310693e+03, 0., 0., 1.97530481e+03,
          2.92689697e+03, 1.94438818e+03, 6.58295557e+03, 4.38505615e+03,
          1.48974927e+03, 0., 0., 0., 7.85865039e+03, 3.77371387e+03,
          3.11494824e+03, 5.33441162e+03, 0., 6.50538177e+01,
          6.85253601e+02, 5.62109668e+03, 2.54429346e+03, 1.18903992e+03,
          6.79332031e+02, 5.84754639e+02, 0., 3.67900098e+03,
          8.93376270e+03, 0., 12., 0., 0., 7.86729675e+02,
          2.74948145e+03, 8.17628857e+03, 6.14085400e+03, 3.36161060e+03,
          12., 0., 0., 0. ]
      - [ 1.75632825e+03, 6.09400293e+03, 2.25819458e+03, 6.27085938e+03,
          0., 0., 0., 0., 0., 0., 7.49348145e+02, 1.61207764e+03,
          8.54906250e+02, 1.73233948e+02, 8.54751434e+01, 0.,
          1.77556384e+03, 0., 2.82028351e+02, 3.71066040e+02,
          5.59676416e+03, 8.42117554e+02, 1.22773389e+03, 0.,
          8.28620544e+02, 1.90078394e+03, 3.95213898e+02, 3.65876050e+03,
          3.29869629e+03, 6.31875391e+03, 2.71125244e+03, 4.11278076e+03,
          0., 0., 1.91049728e+02, 3.99430981e+03, 2.12331079e+03,
          6.92694043e+03, 2.90939844e+03, 8.34659424e+02, 5.60121399e+02,
          1.60031235e+02, 2.39199365e+03, 5.75397754e+03, 1.63787695e+03,
          0., 5.72915344e+02, 0., 0., 3.15228198e+03, 3.87397339e+03,
          4.33606543e+03, 1.86709021e+03, 0., 0., 2.80122632e+03,
          1.64999780e+03, 3.11684521e+03, 5.05076611e+03, 9.11763770e+03,
          138., 0., 0., 8.03990021e+01 ]
      - [ 1.94950586e+03, 1.02489443e+04, 3.10124072e+03, 0., 0., 0., 0.,
          0., 0., 0., 1.55863147e+03, 1.61241113e+03, 0., 7.21110296e+00,
          0., 0., 1.74693884e+03, 0., 0., 2.37018997e+02, 1.73994324e+03,
          1.96160022e+03, 8.22776611e+02, 1.95342188e+03, 9.45576050e+02,
          1.87499805e+03, 2.17567285e+03, 2.61013428e+02, 3.40036670e+03,
          2.00195728e+03, 3.39692505e+03, 5.79996729e+03, 0., 0., 0.,
          2.05704419e+03, 2.88499573e+02, 4.71298291e+03, 8.63969238e+03,
          2.03335242e+03, 0., 0., 1.14017553e+01, 1.75722278e+03,
          3.17413647e+03, 7.36662720e+02, 0., 0., 3.72468628e+02,
          1.40344458e+03, 1.21142932e+03, 3.85277051e+03, 6.26514587e+02,
          0., 3.64769135e+02, 3.96464185e+03, 1.54101587e+03,
          2.73930444e+03, 5.10352930e+03, 3.56140088e+03, 3.20861328e+02,
          7.07277405e+02, 3.23333618e+03, 1.14695190e+03 ]
      - [ 6.43909668e+02, 8.63039551e+03, 1.22818555e+03, 1.41717139e+03,
          1.66026270e+03, 6.66483307e+01, 0., 0., 3.00745758e+02,
          7.93908020e+02, 0., 0., 1.27482910e+03, 2.04563464e+03,
          5.39646606e+02, 8.52768494e+02, 4.72056006e+03, 5.14678589e+02,
          0., 0., 5.48284546e+02, 8.96330261e+02, 6.99755676e+02,
          1.46170581e+03, 3.11978857e+03, 1.46445630e+03, 0., 0.,
          2.66916675e+03, 2.36402905e+03, 3.02073804e+03, 3.34938965e+03,
          7.32354187e+02, 0., 0., 0., 2.16453232e+02, 5.91010645e+03,
          5.27476367e+03, 4.13678467e+03, 0., 2.25334009e+03, 0.,
          1.43974561e+03, 2.70765564e+02, 0., 6.11138306e+02,
          2.55231860e+03, 2.37465479e+03, 2.19379175e+03, 2.58226660e+03,
          1.54624731e+03, 0., 0., 6.96186676e+01, 3.38506445e+03,
          2.48775928e+03, 6.64067334e+03, 2.65138135e+03, 4.40211084e+03,
          0., 1.49164337e+02, 0., 1.73972034e+03 ]
      - [ 7.88217407e+02, 7.27876562e+03, 4.67888428e+03, 4.13086572e+03,
          0., 0., 0., 0., 0., 1.64853027e+03, 1.50437109e+03,
          2.01473584e+03, 3.83617627e+03, 2.47693359e+02, 0., 0.,
          1.68241431e+03, 0., 0., 3.45430566e+03, 3.72351929e+03,
          8.41628174e+02, 4.45303314e+02, 1.04172928e+02, 1.45821069e+03,
          1.81722363e+03, 1.28062487e+01, 3.48552637e+03, 3.16970435e+03,
          4.00702271e+03, 1.89583118e+03, 2.97306104e+03, 0., 0., 0., 0.,
          3.57417188e+03, 7.55223389e+03, 3.12147266e+03, 2.31414111e+03,
          0., 2.45348755e+02, 1.40706226e+03, 2.43758936e+03,
          2.30294971e+03, 2.19491333e+03, 9.47421875e+02, 4.99417664e+02,
          1.71451978e+03, 1.62421191e+03, 2.83572949e+03, 4.84757373e+03,
          1.01662422e+02, 0., 0., 3.51936279e+03, 8.79346436e+02,
          1.46090564e+03, 3.78586108e+03, 8.37939453e+03, 10., 0.,
          2.82842684e+00, 0. ]
      - [ 5.36257422e+03, 3.22298975e+03, 5.19531006e+03, 2.52477979e+03,
          1.84354932e+03, 0., 8.94985962e+01, 0., 5.42440735e+02,
          4.85128857e+03, 6.10972351e+02, 1.74528210e+03, 1.76355823e+03,
          0., 0., 0., 0., 0., 0., 0., 5.98157129e+03, 9.07146057e+02,
          5.49068237e+02, 1.56343823e+03, 1.88037329e+03, 0., 0.,
          2.18446704e+03, 4.02793286e+03, 3.68635718e+03, 3.70049219e+03,
          4.68081396e+03, 1.59112634e+03, 0., 7.24706802e+01, 0.,
          6.53050293e+03, 5.85444141e+03, 2.53508838e+03, 1.49212378e+03,
          1.61208569e+03, 0., 0., 7.65375671e+01, 6.70905811e+03,
          2.11860596e+03, 7.34292847e+02, 0., 0., 3.36837695e+03,
          2.47579126e+03, 5.33389307e+03, 1.39999990e+01, 0., 0.,
          2.94064606e+02, 2.73523364e+03, 2.85281592e+03, 6.58503857e+03,
          6.36098975e+03, 1.39999990e+01, 0., 0., 0. ]
      - [ 7.93880664e+03, 6.01113379e+03, 2.64233545e+03, 2.88092432e+03,
          0., 0., 0., 9.87381653e+02, 1.53866882e+03, 1.30782272e+02,
          1.06695862e+03, 1.07703293e+02, 6.00070923e+02, 0., 0.,
          5.01597404e+01, 2.04197571e+03, 5.83095217e+00, 0., 0., 0.,
          4.79597107e+02, 2.31532324e+03, 7.34829834e+02, 0., 0., 0.,
          2.02076099e+03, 1.74752380e+03, 3.33022729e+03, 6.64675244e+03,
          3.83753467e+03, 0., 0., 0., 6.32455492e+00, 3.68801953e+03,
          3.48082373e+03, 5.23180957e+03, 7.27361279e+03, 0., 0., 0., 0.,
          1.48251440e+03, 1.53884509e+03, 2.12742041e+03, 0.,
          9.05270020e+02, 6.52138000e+02, 8.44476624e+02, 7.91794189e+02,
          268., 1.94444897e+03, 3.47639587e+02, 2.14451367e+03,
          7.74488477e+03, 2.11450513e+03, 2.23274268e+03, 5.48970850e+03,
          2., 0., 0., 2.08206274e+03 ]
      - [ 3.39603198e+03, 2.22753760e+03, 3.84990332e+03, 3.12731152e+03,
          3.18230957e+03, 4.11526398e+02, 0., 0., 1.41763916e+03,
          3.57357361e+02, 2.60482788e+03, 4.22912891e+03, 0., 0., 0., 0.,
          5.43165955e+02, 1.41421342e+00, 0., 0., 3.46544800e+03,
          1.70508997e+03, 4.48291357e+03, 0., 0., 0., 0., 0.,
          5.23617627e+03, 3.91239355e+03, 3.14279272e+03, 4.75413867e+03,
          0., 0., 0., 2.26737747e+02, 9.90043652e+03, 1.93889990e+03,
          2.98998657e+03, 1.76518054e+03, 0., 0., 0., 0., 7.88469629e+03,
          8.78084595e+02, 9.15553528e+02, 5.08246643e+02, 8.68371216e+02,
          1.27789661e+03, 3.74857520e+03, 1.42255249e+03, 3.57651440e+03,
          0., 1.13137074e+01, 1.01202766e+02, 3.68270874e+03,
          1.57884937e+03, 5.90443555e+03, 6.48144873e+03, 88., 0.,
          3.78581161e+01, 8.27133179e+02 ]
      - [ 1.12108960e+03, 3.90028027e+03, 5.97889551e+03, 2.98628760e+03,
          9.12212891e+02, 0., 0., 0., 0., 1.20633850e+03, 2.03881067e+03,
          3.99584863e+03, 0., 0., 1.18152443e+02, 0., 1.29682214e+03, 0.,
          0., 1.68011902e+02, 3.99722876e+03, 1.79713464e+03,
          1.25443774e+03, 6.60928101e+02, 1.61370898e+03, 2.91952911e+02,
          0., 1.39283886e+01, 5.85040430e+03, 2.45187622e+03,
          4.33662500e+03, 2.20897754e+03, 0., 8.10061722e+01, 0., 0.,
          8.60936621e+03, 3.56673413e+03, 1.64424402e+03, 2.09906030e+03,
          0., 1.55563507e+01, 1.11400192e+02, 4.46814209e+03,
          2.74935254e+03, 1.56114319e+03, 5.53352417e+02, 8.31562439e+02,
          1.45301685e+03, 8.95399658e+02, 4.81154492e+03, 2.60858838e+03,
          1.61729480e+03, 0., 0., 1.48623804e+03, 1.64478284e+03,
          3.41212622e+03, 5.64561670e+03, 5.67454834e+03, 44., 0., 0.,
          0. ]
      - [ 4.30199805e+03, 2.45677295e+03, 1.41882056e+03, 1.71865137e+03,
